digraph Tree {
node [shape=box] ;
0 [label="X[0] <= 29.5\ngini = 0.365\nsamples = 22792\nvalue = [17313, 5479]"] ;
1 [label="X[0] <= 25.5\ngini = 0.1\nsamples = 6724\nvalue = [6370, 354]"] ;
0 -> 1 [labeldistance=2.5, labelangle=45, headlabel="True"] ;
2 [label="X[0] <= 23.5\ngini = 0.034\nsamples = 4451\nvalue = [4374, 77]"] ;
1 -> 2 ;
3 [label="X[0] <= 21.5\ngini = 0.013\nsamples = 3312\nvalue = [3290, 22]"] ;
2 -> 3 ;
4 [label="X[9] <= 0.5\ngini = 0.001\nsamples = 2172\nvalue = [2171, 1]"] ;
3 -> 4 ;
5 [label="gini = 0.0\nsamples = 1667\nvalue = [1667, 0]"] ;
4 -> 5 ;
6 [label="X[0] <= 19.5\ngini = 0.004\nsamples = 505\nvalue = [504, 1]"] ;
4 -> 6 ;
7 [label="X[0] <= 18.5\ngini = 0.006\nsamples = 312\nvalue = [311, 1]"] ;
6 -> 7 ;
8 [label="gini = 0.0\nsamples = 190\nvalue = [190, 0]"] ;
7 -> 8 ;
9 [label="gini = 0.016\nsamples = 122\nvalue = [121, 1]"] ;
7 -> 9 ;
10 [label="gini = 0.0\nsamples = 193\nvalue = [193, 0]"] ;
6 -> 10 ;
11 [label="X[11] <= 0.5\ngini = 0.036\nsamples = 1140\nvalue = [1119, 21]"] ;
3 -> 11 ;
12 [label="X[15] <= 0.5\ngini = 0.03\nsamples = 1048\nvalue = [1032, 16]"] ;
11 -> 12 ;
13 [label="X[12] <= 0.5\ngini = 0.026\nsamples = 1000\nvalue = [987, 13]"] ;
12 -> 13 ;
14 [label="X[8] <= 0.5\ngini = 0.024\nsamples = 983\nvalue = [971, 12]"] ;
13 -> 14 ;
15 [label="X[9] <= 0.5\ngini = 0.022\nsamples = 910\nvalue = [900, 10]"] ;
14 -> 15 ;
16 [label="X[4] <= 0.5\ngini = 0.018\nsamples = 754\nvalue = [747, 7]"] ;
15 -> 16 ;
17 [label="X[1] <= 0.5\ngini = 0.015\nsamples = 658\nvalue = [653, 5]"] ;
16 -> 17 ;
18 [label="X[0] <= 22.5\ngini = 0.018\nsamples = 565\nvalue = [560, 5]"] ;
17 -> 18 ;
19 [label="X[2] <= 0.5\ngini = 0.023\nsamples = 254\nvalue = [251, 3]"] ;
18 -> 19 ;
20 [label="X[5] <= 0.5\ngini = 0.036\nsamples = 162\nvalue = [159, 3]"] ;
19 -> 20 ;
21 [label="X[7] <= 0.5\ngini = 0.03\nsamples = 133\nvalue = [131, 2]"] ;
20 -> 21 ;
22 [label="X[13] <= 0.5\ngini = 0.02\nsamples = 98\nvalue = [97, 1]"] ;
21 -> 22 ;
23 [label="gini = 0.0\nsamples = 29\nvalue = [29, 0]"] ;
22 -> 23 ;
24 [label="gini = 0.029\nsamples = 69\nvalue = [68, 1]"] ;
22 -> 24 ;
25 [label="gini = 0.056\nsamples = 35\nvalue = [34, 1]"] ;
21 -> 25 ;
26 [label="gini = 0.067\nsamples = 29\nvalue = [28, 1]"] ;
20 -> 26 ;
27 [label="gini = 0.0\nsamples = 92\nvalue = [92, 0]"] ;
19 -> 27 ;
28 [label="X[2] <= 0.5\ngini = 0.013\nsamples = 311\nvalue = [309, 2]"] ;
18 -> 28 ;
29 [label="gini = 0.0\nsamples = 214\nvalue = [214, 0]"] ;
28 -> 29 ;
30 [label="gini = 0.04\nsamples = 97\nvalue = [95, 2]"] ;
28 -> 30 ;
31 [label="gini = 0.0\nsamples = 93\nvalue = [93, 0]"] ;
17 -> 31 ;
32 [label="X[0] <= 22.5\ngini = 0.041\nsamples = 96\nvalue = [94, 2]"] ;
16 -> 32 ;
33 [label="gini = 0.046\nsamples = 42\nvalue = [41, 1]"] ;
32 -> 33 ;
34 [label="gini = 0.036\nsamples = 54\nvalue = [53, 1]"] ;
32 -> 34 ;
35 [label="X[0] <= 22.5\ngini = 0.038\nsamples = 156\nvalue = [153, 3]"] ;
15 -> 35 ;
36 [label="gini = 0.056\nsamples = 70\nvalue = [68, 2]"] ;
35 -> 36 ;
37 [label="gini = 0.023\nsamples = 86\nvalue = [85, 1]"] ;
35 -> 37 ;
38 [label="X[0] <= 22.5\ngini = 0.053\nsamples = 73\nvalue = [71, 2]"] ;
14 -> 38 ;
39 [label="gini = 0.083\nsamples = 23\nvalue = [22, 1]"] ;
38 -> 39 ;
40 [label="gini = 0.039\nsamples = 50\nvalue = [49, 1]"] ;
38 -> 40 ;
41 [label="X[0] <= 22.5\ngini = 0.111\nsamples = 17\nvalue = [16, 1]"] ;
13 -> 41 ;
42 [label="gini = 0.0\nsamples = 8\nvalue = [8, 0]"] ;
41 -> 42 ;
43 [label="gini = 0.198\nsamples = 9\nvalue = [8, 1]"] ;
41 -> 43 ;
44 [label="X[0] <= 22.5\ngini = 0.117\nsamples = 48\nvalue = [45, 3]"] ;
12 -> 44 ;
45 [label="gini = 0.142\nsamples = 26\nvalue = [24, 2]"] ;
44 -> 45 ;
46 [label="gini = 0.087\nsamples = 22\nvalue = [21, 1]"] ;
44 -> 46 ;
47 [label="X[0] <= 22.5\ngini = 0.103\nsamples = 92\nvalue = [87, 5]"] ;
11 -> 47 ;
48 [label="gini = 0.111\nsamples = 34\nvalue = [32, 2]"] ;
47 -> 48 ;
49 [label="gini = 0.098\nsamples = 58\nvalue = [55, 3]"] ;
47 -> 49 ;
50 [label="X[11] <= 0.5\ngini = 0.092\nsamples = 1139\nvalue = [1084, 55]"] ;
2 -> 50 ;
51 [label="X[5] <= 0.5\ngini = 0.082\nsamples = 1006\nvalue = [963, 43]"] ;
50 -> 51 ;
52 [label="X[15] <= 0.5\ngini = 0.072\nsamples = 906\nvalue = [872, 34]"] ;
51 -> 52 ;
53 [label="X[0] <= 24.5\ngini = 0.065\nsamples = 861\nvalue = [832, 29]"] ;
52 -> 53 ;
54 [label="X[12] <= 0.5\ngini = 0.04\nsamples = 442\nvalue = [433, 9]"] ;
53 -> 54 ;
55 [label="X[4] <= 0.5\ngini = 0.036\nsamples = 433\nvalue = [425, 8]"] ;
54 -> 55 ;
56 [label="X[14] <= 0.5\ngini = 0.042\nsamples = 370\nvalue = [362, 8]"] ;
55 -> 56 ;
57 [label="X[1] <= 0.5\ngini = 0.039\nsamples = 350\nvalue = [343, 7]"] ;
56 -> 57 ;
58 [label="X[6] <= 0.5\ngini = 0.036\nsamples = 326\nvalue = [320, 6]"] ;
57 -> 58 ;
59 [label="X[13] <= 0.5\ngini = 0.038\nsamples = 311\nvalue = [305, 6]"] ;
58 -> 59 ;
60 [label="X[7] <= 0.5\ngini = 0.034\nsamples = 229\nvalue = [225, 4]"] ;
59 -> 60 ;
61 [label="X[10] <= 0.5\ngini = 0.032\nsamples = 186\nvalue = [183, 3]"] ;
60 -> 61 ;
62 [label="X[2] <= 0.5\ngini = 0.032\nsamples = 183\nvalue = [180, 3]"] ;
61 -> 62 ;
63 [label="X[3] <= 0.5\ngini = 0.035\nsamples = 112\nvalue = [110, 2]"] ;
62 -> 63 ;
64 [label="X[8] <= 0.5\ngini = 0.036\nsamples = 110\nvalue = [108, 2]"] ;
63 -> 64 ;
65 [label="gini = 0.036\nsamples = 55\nvalue = [54, 1]"] ;
64 -> 65 ;
66 [label="gini = 0.036\nsamples = 55\nvalue = [54, 1]"] ;
64 -> 66 ;
67 [label="gini = 0.0\nsamples = 2\nvalue = [2, 0]"] ;
63 -> 67 ;
68 [label="gini = 0.028\nsamples = 71\nvalue = [70, 1]"] ;
62 -> 68 ;
69 [label="gini = 0.0\nsamples = 3\nvalue = [3, 0]"] ;
61 -> 69 ;
70 [label="gini = 0.045\nsamples = 43\nvalue = [42, 1]"] ;
60 -> 70 ;
71 [label="gini = 0.048\nsamples = 82\nvalue = [80, 2]"] ;
59 -> 71 ;
72 [label="gini = 0.0\nsamples = 15\nvalue = [15, 0]"] ;
58 -> 72 ;
73 [label="gini = 0.08\nsamples = 24\nvalue = [23, 1]"] ;
57 -> 73 ;
74 [label="gini = 0.095\nsamples = 20\nvalue = [19, 1]"] ;
56 -> 74 ;
75 [label="gini = 0.0\nsamples = 63\nvalue = [63, 0]"] ;
55 -> 75 ;
76 [label="gini = 0.198\nsamples = 9\nvalue = [8, 1]"] ;
54 -> 76 ;
77 [label="X[13] <= 0.5\ngini = 0.091\nsamples = 419\nvalue = [399, 20]"] ;
53 -> 77 ;
78 [label="X[2] <= 0.5\ngini = 0.075\nsamples = 357\nvalue = [343, 14]"] ;
77 -> 78 ;
79 [label="X[14] <= 0.5\ngini = 0.056\nsamples = 275\nvalue = [267, 8]"] ;
78 -> 79 ;
80 [label="X[4] <= 0.5\ngini = 0.041\nsamples = 241\nvalue = [236, 5]"] ;
79 -> 80 ;
81 [label="X[12] <= 0.5\ngini = 0.011\nsamples = 181\nvalue = [180, 1]"] ;
80 -> 81 ;
82 [label="gini = 0.0\nsamples = 170\nvalue = [170, 0]"] ;
81 -> 82 ;
83 [label="gini = 0.165\nsamples = 11\nvalue = [10, 1]"] ;
81 -> 83 ;
84 [label="gini = 0.124\nsamples = 60\nvalue = [56, 4]"] ;
80 -> 84 ;
85 [label="gini = 0.161\nsamples = 34\nvalue = [31, 3]"] ;
79 -> 85 ;
86 [label="gini = 0.136\nsamples = 82\nvalue = [76, 6]"] ;
78 -> 86 ;
87 [label="gini = 0.175\nsamples = 62\nvalue = [56, 6]"] ;
77 -> 87 ;
88 [label="X[0] <= 24.5\ngini = 0.198\nsamples = 45\nvalue = [40, 5]"] ;
52 -> 88 ;
89 [label="gini = 0.32\nsamples = 15\nvalue = [12, 3]"] ;
88 -> 89 ;
90 [label="gini = 0.124\nsamples = 30\nvalue = [28, 2]"] ;
88 -> 90 ;
91 [label="X[0] <= 24.5\ngini = 0.164\nsamples = 100\nvalue = [91, 9]"] ;
51 -> 91 ;
92 [label="gini = 0.087\nsamples = 44\nvalue = [42, 2]"] ;
91 -> 92 ;
93 [label="gini = 0.219\nsamples = 56\nvalue = [49, 7]"] ;
91 -> 93 ;
94 [label="X[0] <= 24.5\ngini = 0.164\nsamples = 133\nvalue = [121, 12]"] ;
50 -> 94 ;
95 [label="gini = 0.155\nsamples = 59\nvalue = [54, 5]"] ;
94 -> 95 ;
96 [label="gini = 0.171\nsamples = 74\nvalue = [67, 7]"] ;
94 -> 96 ;
97 [label="X[5] <= 0.5\ngini = 0.214\nsamples = 2273\nvalue = [1996, 277]"] ;
1 -> 97 ;
98 [label="X[11] <= 0.5\ngini = 0.194\nsamples = 2052\nvalue = [1828, 224]"] ;
97 -> 98 ;
99 [label="X[13] <= 0.5\ngini = 0.166\nsamples = 1758\nvalue = [1597, 161]"] ;
98 -> 99 ;
100 [label="X[14] <= 0.5\ngini = 0.15\nsamples = 1496\nvalue = [1374, 122]"] ;
99 -> 100 ;
101 [label="X[12] <= 0.5\ngini = 0.139\nsamples = 1407\nvalue = [1301, 106]"] ;
100 -> 101 ;
102 [label="X[4] <= 0.5\ngini = 0.13\nsamples = 1341\nvalue = [1247, 94]"] ;
101 -> 102 ;
103 [label="X[15] <= 0.5\ngini = 0.112\nsamples = 1026\nvalue = [965, 61]"] ;
102 -> 103 ;
104 [label="X[6] <= 0.5\ngini = 0.105\nsamples = 922\nvalue = [871, 51]"] ;
103 -> 104 ;
105 [label="X[0] <= 28.5\ngini = 0.109\nsamples = 861\nvalue = [811, 50]"] ;
104 -> 105 ;
106 [label="X[2] <= 0.5\ngini = 0.1\nsamples = 662\nvalue = [627, 35]"] ;
105 -> 106 ;
107 [label="X[1] <= 0.5\ngini = 0.084\nsamples = 430\nvalue = [411, 19]"] ;
106 -> 107 ;
108 [label="X[9] <= 0.5\ngini = 0.075\nsamples = 361\nvalue = [347, 14]"] ;
107 -> 108 ;
109 [label="X[0] <= 26.5\ngini = 0.082\nsamples = 211\nvalue = [202, 9]"] ;
108 -> 109 ;
110 [label="X[10] <= 0.5\ngini = 0.103\nsamples = 55\nvalue = [52, 3]"] ;
109 -> 110 ;
111 [label="X[8] <= 0.5\ngini = 0.107\nsamples = 53\nvalue = [50, 3]"] ;
110 -> 111 ;
112 [label="gini = 0.091\nsamples = 21\nvalue = [20, 1]"] ;
111 -> 112 ;
113 [label="gini = 0.117\nsamples = 32\nvalue = [30, 2]"] ;
111 -> 113 ;
114 [label="gini = 0.0\nsamples = 2\nvalue = [2, 0]"] ;
110 -> 114 ;
115 [label="X[0] <= 27.5\ngini = 0.074\nsamples = 156\nvalue = [150, 6]"] ;
109 -> 115 ;
116 [label="X[10] <= 0.5\ngini = 0.053\nsamples = 74\nvalue = [72, 2]"] ;
115 -> 116 ;
117 [label="X[8] <= 0.5\ngini = 0.053\nsamples = 73\nvalue = [71, 2]"] ;
116 -> 117 ;
118 [label="gini = 0.057\nsamples = 34\nvalue = [33, 1]"] ;
117 -> 118 ;
119 [label="gini = 0.05\nsamples = 39\nvalue = [38, 1]"] ;
117 -> 119 ;
120 [label="gini = 0.0\nsamples = 1\nvalue = [1, 0]"] ;
116 -> 120 ;
121 [label="X[7] <= 0.5\ngini = 0.093\nsamples = 82\nvalue = [78, 4]"] ;
115 -> 121 ;
122 [label="X[8] <= 0.5\ngini = 0.081\nsamples = 47\nvalue = [45, 2]"] ;
121 -> 122 ;
123 [label="gini = 0.0\nsamples = 1\nvalue = [1, 0]"] ;
122 -> 123 ;
124 [label="gini = 0.083\nsamples = 46\nvalue = [44, 2]"] ;
122 -> 124 ;
125 [label="gini = 0.108\nsamples = 35\nvalue = [33, 2]"] ;
121 -> 125 ;
126 [label="X[0] <= 26.5\ngini = 0.064\nsamples = 150\nvalue = [145, 5]"] ;
108 -> 126 ;
127 [label="gini = 0.037\nsamples = 53\nvalue = [52, 1]"] ;
126 -> 127 ;
128 [label="X[0] <= 27.5\ngini = 0.079\nsamples = 97\nvalue = [93, 4]"] ;
126 -> 128 ;
129 [label="gini = 0.095\nsamples = 40\nvalue = [38, 2]"] ;
128 -> 129 ;
130 [label="gini = 0.068\nsamples = 57\nvalue = [55, 2]"] ;
128 -> 130 ;
131 [label="X[0] <= 27.5\ngini = 0.134\nsamples = 69\nvalue = [64, 5]"] ;
107 -> 131 ;
132 [label="X[0] <= 26.5\ngini = 0.229\nsamples = 38\nvalue = [33, 5]"] ;
131 -> 132 ;
133 [label="gini = 0.142\nsamples = 13\nvalue = [12, 1]"] ;
132 -> 133 ;
134 [label="gini = 0.269\nsamples = 25\nvalue = [21, 4]"] ;
132 -> 134 ;
135 [label="gini = 0.0\nsamples = 31\nvalue = [31, 0]"] ;
131 -> 135 ;
136 [label="X[0] <= 27.5\ngini = 0.128\nsamples = 232\nvalue = [216, 16]"] ;
106 -> 136 ;
137 [label="X[0] <= 26.5\ngini = 0.115\nsamples = 164\nvalue = [154, 10]"] ;
136 -> 137 ;
138 [label="gini = 0.136\nsamples = 82\nvalue = [76, 6]"] ;
137 -> 138 ;
139 [label="gini = 0.093\nsamples = 82\nvalue = [78, 4]"] ;
137 -> 139 ;
140 [label="gini = 0.161\nsamples = 68\nvalue = [62, 6]"] ;
136 -> 140 ;
141 [label="X[8] <= 0.5\ngini = 0.139\nsamples = 199\nvalue = [184, 15]"] ;
105 -> 141 ;
142 [label="X[7] <= 0.5\ngini = 0.12\nsamples = 156\nvalue = [146, 10]"] ;
141 -> 142 ;
143 [label="X[9] <= 0.5\ngini = 0.103\nsamples = 129\nvalue = [122, 7]"] ;
142 -> 143 ;
144 [label="X[10] <= 0.5\ngini = 0.078\nsamples = 74\nvalue = [71, 3]"] ;
143 -> 144 ;
145 [label="X[1] <= 0.5\ngini = 0.081\nsamples = 71\nvalue = [68, 3]"] ;
144 -> 145 ;
146 [label="X[2] <= 0.5\ngini = 0.074\nsamples = 52\nvalue = [50, 2]"] ;
145 -> 146 ;
147 [label="gini = 0.0\nsamples = 1\nvalue = [1, 0]"] ;
146 -> 147 ;
148 [label="gini = 0.075\nsamples = 51\nvalue = [49, 2]"] ;
146 -> 148 ;
149 [label="gini = 0.1\nsamples = 19\nvalue = [18, 1]"] ;
145 -> 149 ;
150 [label="gini = 0.0\nsamples = 3\nvalue = [3, 0]"] ;
144 -> 150 ;
151 [label="gini = 0.135\nsamples = 55\nvalue = [51, 4]"] ;
143 -> 151 ;
152 [label="gini = 0.198\nsamples = 27\nvalue = [24, 3]"] ;
142 -> 152 ;
153 [label="gini = 0.206\nsamples = 43\nvalue = [38, 5]"] ;
141 -> 153 ;
154 [label="X[0] <= 27.5\ngini = 0.032\nsamples = 61\nvalue = [60, 1]"] ;
104 -> 154 ;
155 [label="gini = 0.0\nsamples = 33\nvalue = [33, 0]"] ;
154 -> 155 ;
156 [label="X[0] <= 28.5\ngini = 0.069\nsamples = 28\nvalue = [27, 1]"] ;
154 -> 156 ;
157 [label="gini = 0.198\nsamples = 9\nvalue = [8, 1]"] ;
156 -> 157 ;
158 [label="gini = 0.0\nsamples = 19\nvalue = [19, 0]"] ;
156 -> 158 ;
159 [label="X[0] <= 28.5\ngini = 0.174\nsamples = 104\nvalue = [94, 10]"] ;
103 -> 159 ;
160 [label="X[0] <= 27.5\ngini = 0.16\nsamples = 80\nvalue = [73, 7]"] ;
159 -> 160 ;
161 [label="X[0] <= 26.5\ngini = 0.194\nsamples = 55\nvalue = [49, 6]"] ;
160 -> 161 ;
162 [label="gini = 0.204\nsamples = 26\nvalue = [23, 3]"] ;
161 -> 162 ;
163 [label="gini = 0.185\nsamples = 29\nvalue = [26, 3]"] ;
161 -> 163 ;
164 [label="gini = 0.077\nsamples = 25\nvalue = [24, 1]"] ;
160 -> 164 ;
165 [label="gini = 0.219\nsamples = 24\nvalue = [21, 3]"] ;
159 -> 165 ;
166 [label="X[0] <= 28.5\ngini = 0.188\nsamples = 315\nvalue = [282, 33]"] ;
102 -> 166 ;
167 [label="X[0] <= 27.5\ngini = 0.149\nsamples = 222\nvalue = [204, 18]"] ;
166 -> 167 ;
168 [label="X[0] <= 26.5\ngini = 0.159\nsamples = 149\nvalue = [136, 13]"] ;
167 -> 168 ;
169 [label="gini = 0.149\nsamples = 74\nvalue = [68, 6]"] ;
168 -> 169 ;
170 [label="gini = 0.169\nsamples = 75\nvalue = [68, 7]"] ;
168 -> 170 ;
171 [label="gini = 0.128\nsamples = 73\nvalue = [68, 5]"] ;
167 -> 171 ;
172 [label="gini = 0.271\nsamples = 93\nvalue = [78, 15]"] ;
166 -> 172 ;
173 [label="X[0] <= 27.5\ngini = 0.298\nsamples = 66\nvalue = [54, 12]"] ;
101 -> 173 ;
174 [label="X[0] <= 26.5\ngini = 0.337\nsamples = 28\nvalue = [22, 6]"] ;
173 -> 174 ;
175 [label="gini = 0.337\nsamples = 14\nvalue = [11, 3]"] ;
174 -> 175 ;
176 [label="gini = 0.337\nsamples = 14\nvalue = [11, 3]"] ;
174 -> 176 ;
177 [label="X[0] <= 28.5\ngini = 0.266\nsamples = 38\nvalue = [32, 6]"] ;
173 -> 177 ;
178 [label="gini = 0.266\nsamples = 19\nvalue = [16, 3]"] ;
177 -> 178 ;
179 [label="gini = 0.266\nsamples = 19\nvalue = [16, 3]"] ;
177 -> 179 ;
180 [label="X[0] <= 27.5\ngini = 0.295\nsamples = 89\nvalue = [73, 16]"] ;
100 -> 180 ;
181 [label="X[0] <= 26.5\ngini = 0.165\nsamples = 44\nvalue = [40, 4]"] ;
180 -> 181 ;
182 [label="gini = 0.133\nsamples = 14\nvalue = [13, 1]"] ;
181 -> 182 ;
183 [label="gini = 0.18\nsamples = 30\nvalue = [27, 3]"] ;
181 -> 183 ;
184 [label="X[0] <= 28.5\ngini = 0.391\nsamples = 45\nvalue = [33, 12]"] ;
180 -> 184 ;
185 [label="gini = 0.444\nsamples = 18\nvalue = [12, 6]"] ;
184 -> 185 ;
186 [label="gini = 0.346\nsamples = 27\nvalue = [21, 6]"] ;
184 -> 186 ;
187 [label="X[0] <= 27.5\ngini = 0.253\nsamples = 262\nvalue = [223, 39]"] ;
99 -> 187 ;
188 [label="X[0] <= 26.5\ngini = 0.193\nsamples = 139\nvalue = [124, 15]"] ;
187 -> 188 ;
189 [label="gini = 0.185\nsamples = 68\nvalue = [61, 7]"] ;
188 -> 189 ;
190 [label="gini = 0.2\nsamples = 71\nvalue = [63, 8]"] ;
188 -> 190 ;
191 [label="X[0] <= 28.5\ngini = 0.314\nsamples = 123\nvalue = [99, 24]"] ;
187 -> 191 ;
192 [label="gini = 0.285\nsamples = 64\nvalue = [53, 11]"] ;
191 -> 192 ;
193 [label="gini = 0.344\nsamples = 59\nvalue = [46, 13]"] ;
191 -> 193 ;
194 [label="X[0] <= 27.5\ngini = 0.337\nsamples = 294\nvalue = [231, 63]"] ;
98 -> 194 ;
195 [label="X[0] <= 26.5\ngini = 0.207\nsamples = 128\nvalue = [113, 15]"] ;
194 -> 195 ;
196 [label="gini = 0.173\nsamples = 73\nvalue = [66, 7]"] ;
195 -> 196 ;
197 [label="gini = 0.249\nsamples = 55\nvalue = [47, 8]"] ;
195 -> 197 ;
198 [label="X[0] <= 28.5\ngini = 0.411\nsamples = 166\nvalue = [118, 48]"] ;
194 -> 198 ;
199 [label="gini = 0.385\nsamples = 77\nvalue = [57, 20]"] ;
198 -> 199 ;
200 [label="gini = 0.431\nsamples = 89\nvalue = [61, 28]"] ;
198 -> 200 ;
201 [label="X[0] <= 27.5\ngini = 0.365\nsamples = 221\nvalue = [168, 53]"] ;
97 -> 201 ;
202 [label="X[0] <= 26.5\ngini = 0.29\nsamples = 108\nvalue = [89, 19]"] ;
201 -> 202 ;
203 [label="gini = 0.241\nsamples = 57\nvalue = [49, 8]"] ;
202 -> 203 ;
204 [label="gini = 0.338\nsamples = 51\nvalue = [40, 11]"] ;
202 -> 204 ;
205 [label="X[0] <= 28.5\ngini = 0.421\nsamples = 113\nvalue = [79, 34]"] ;
201 -> 205 ;
206 [label="gini = 0.414\nsamples = 65\nvalue = [46, 19]"] ;
205 -> 206 ;
207 [label="gini = 0.43\nsamples = 48\nvalue = [33, 15]"] ;
205 -> 207 ;
208 [label="X[5] <= 0.5\ngini = 0.434\nsamples = 16068\nvalue = [10943, 5125]"] ;
0 -> 208 [labeldistance=2.5, labelangle=-45, headlabel="False"] ;
209 [label="X[11] <= 0.5\ngini = 0.401\nsamples = 13626\nvalue = [9841, 3785]"] ;
208 -> 209 ;
210 [label="X[13] <= 0.5\ngini = 0.352\nsamples = 11373\nvalue = [8777, 2596]"] ;
209 -> 210 ;
211 [label="X[9] <= 0.5\ngini = 0.322\nsamples = 9723\nvalue = [7761, 1962]"] ;
210 -> 211 ;
212 [label="X[0] <= 35.5\ngini = 0.348\nsamples = 8396\nvalue = [6509, 1887]"] ;
211 -> 212 ;
213 [label="X[12] <= 0.5\ngini = 0.25\nsamples = 2008\nvalue = [1714, 294]"] ;
212 -> 213 ;
214 [label="X[7] <= 0.5\ngini = 0.237\nsamples = 1914\nvalue = [1651, 263]"] ;
213 -> 214 ;
215 [label="X[14] <= 0.5\ngini = 0.25\nsamples = 1758\nvalue = [1500, 258]"] ;
214 -> 215 ;
216 [label="X[4] <= 0.5\ngini = 0.241\nsamples = 1636\nvalue = [1407, 229]"] ;
215 -> 216 ;
217 [label="X[15] <= 0.5\ngini = 0.213\nsamples = 1071\nvalue = [941, 130]"] ;
216 -> 217 ;
218 [label="X[10] <= 0.5\ngini = 0.202\nsamples = 876\nvalue = [776, 100]"] ;
217 -> 218 ;
219 [label="X[3] <= 0.5\ngini = 0.204\nsamples = 868\nvalue = [768, 100]"] ;
218 -> 219 ;
220 [label="X[0] <= 31.5\ngini = 0.204\nsamples = 866\nvalue = [766, 100]"] ;
219 -> 220 ;
221 [label="X[2] <= 0.5\ngini = 0.215\nsamples = 326\nvalue = [286, 40]"] ;
220 -> 221 ;
222 [label="X[0] <= 30.5\ngini = 0.199\nsamples = 152\nvalue = [135, 17]"] ;
221 -> 222 ;
223 [label="X[6] <= 0.5\ngini = 0.204\nsamples = 78\nvalue = [69, 9]"] ;
222 -> 223 ;
224 [label="X[1] <= 0.5\ngini = 0.224\nsamples = 70\nvalue = [61, 9]"] ;
223 -> 224 ;
225 [label="gini = 0.249\nsamples = 48\nvalue = [41, 7]"] ;
224 -> 225 ;
226 [label="gini = 0.165\nsamples = 22\nvalue = [20, 2]"] ;
224 -> 226 ;
227 [label="gini = 0.0\nsamples = 8\nvalue = [8, 0]"] ;
223 -> 227 ;
228 [label="X[8] <= 0.5\ngini = 0.193\nsamples = 74\nvalue = [66, 8]"] ;
222 -> 228 ;
229 [label="X[1] <= 0.5\ngini = 0.251\nsamples = 34\nvalue = [29, 5]"] ;
228 -> 229 ;
230 [label="gini = 0.266\nsamples = 19\nvalue = [16, 3]"] ;
229 -> 230 ;
231 [label="gini = 0.231\nsamples = 15\nvalue = [13, 2]"] ;
229 -> 231 ;
232 [label="gini = 0.139\nsamples = 40\nvalue = [37, 3]"] ;
228 -> 232 ;
233 [label="X[0] <= 30.5\ngini = 0.229\nsamples = 174\nvalue = [151, 23]"] ;
221 -> 233 ;
234 [label="gini = 0.227\nsamples = 92\nvalue = [80, 12]"] ;
233 -> 234 ;
235 [label="gini = 0.232\nsamples = 82\nvalue = [71, 11]"] ;
233 -> 235 ;
236 [label="X[0] <= 32.5\ngini = 0.198\nsamples = 540\nvalue = [480, 60]"] ;
220 -> 236 ;
237 [label="X[2] <= 0.5\ngini = 0.161\nsamples = 125\nvalue = [114, 11]"] ;
236 -> 237 ;
238 [label="X[8] <= 0.5\ngini = 0.23\nsamples = 68\nvalue = [59, 9]"] ;
237 -> 238 ;
239 [label="X[6] <= 0.5\ngini = 0.278\nsamples = 24\nvalue = [20, 4]"] ;
238 -> 239 ;
240 [label="gini = 0.26\nsamples = 13\nvalue = [11, 2]"] ;
239 -> 240 ;
241 [label="gini = 0.298\nsamples = 11\nvalue = [9, 2]"] ;
239 -> 241 ;
242 [label="gini = 0.201\nsamples = 44\nvalue = [39, 5]"] ;
238 -> 242 ;
243 [label="gini = 0.068\nsamples = 57\nvalue = [55, 2]"] ;
237 -> 243 ;
244 [label="X[2] <= 0.5\ngini = 0.208\nsamples = 415\nvalue = [366, 49]"] ;
236 -> 244 ;
245 [label="X[0] <= 34.5\ngini = 0.193\nsamples = 222\nvalue = [198, 24]"] ;
244 -> 245 ;
246 [label="X[1] <= 0.5\ngini = 0.211\nsamples = 142\nvalue = [125, 17]"] ;
245 -> 246 ;
247 [label="X[0] <= 33.5\ngini = 0.236\nsamples = 110\nvalue = [95, 15]"] ;
246 -> 247 ;
248 [label="X[6] <= 0.5\ngini = 0.208\nsamples = 51\nvalue = [45, 6]"] ;
247 -> 248 ;
249 [label="gini = 0.251\nsamples = 34\nvalue = [29, 5]"] ;
248 -> 249 ;
250 [label="gini = 0.111\nsamples = 17\nvalue = [16, 1]"] ;
248 -> 250 ;
251 [label="X[8] <= 0.5\ngini = 0.259\nsamples = 59\nvalue = [50, 9]"] ;
247 -> 251 ;
252 [label="gini = 0.278\nsamples = 18\nvalue = [15, 3]"] ;
251 -> 252 ;
253 [label="gini = 0.25\nsamples = 41\nvalue = [35, 6]"] ;
251 -> 253 ;
254 [label="X[0] <= 33.5\ngini = 0.117\nsamples = 32\nvalue = [30, 2]"] ;
246 -> 254 ;
255 [label="gini = 0.117\nsamples = 16\nvalue = [15, 1]"] ;
254 -> 255 ;
256 [label="gini = 0.117\nsamples = 16\nvalue = [15, 1]"] ;
254 -> 256 ;
257 [label="X[1] <= 0.5\ngini = 0.16\nsamples = 80\nvalue = [73, 7]"] ;
245 -> 257 ;
258 [label="X[6] <= 0.5\ngini = 0.119\nsamples = 63\nvalue = [59, 4]"] ;
257 -> 258 ;
259 [label="gini = 0.105\nsamples = 36\nvalue = [34, 2]"] ;
258 -> 259 ;
260 [label="gini = 0.137\nsamples = 27\nvalue = [25, 2]"] ;
258 -> 260 ;
261 [label="gini = 0.291\nsamples = 17\nvalue = [14, 3]"] ;
257 -> 261 ;
262 [label="X[0] <= 34.5\ngini = 0.226\nsamples = 193\nvalue = [168, 25]"] ;
244 -> 262 ;
263 [label="X[0] <= 33.5\ngini = 0.206\nsamples = 146\nvalue = [129, 17]"] ;
262 -> 263 ;
264 [label="gini = 0.206\nsamples = 77\nvalue = [68, 9]"] ;
263 -> 264 ;
265 [label="gini = 0.205\nsamples = 69\nvalue = [61, 8]"] ;
263 -> 265 ;
266 [label="gini = 0.282\nsamples = 47\nvalue = [39, 8]"] ;
262 -> 266 ;
267 [label="gini = 0.0\nsamples = 2\nvalue = [2, 0]"] ;
219 -> 267 ;
268 [label="gini = 0.0\nsamples = 8\nvalue = [8, 0]"] ;
218 -> 268 ;
269 [label="X[0] <= 32.5\ngini = 0.26\nsamples = 195\nvalue = [165, 30]"] ;
217 -> 269 ;
270 [label="X[0] <= 31.5\ngini = 0.332\nsamples = 95\nvalue = [75, 20]"] ;
269 -> 270 ;
271 [label="X[0] <= 30.5\ngini = 0.313\nsamples = 67\nvalue = [54, 13]"] ;
270 -> 271 ;
272 [label="gini = 0.327\nsamples = 34\nvalue = [27, 7]"] ;
271 -> 272 ;
273 [label="gini = 0.298\nsamples = 33\nvalue = [27, 6]"] ;
271 -> 273 ;
274 [label="gini = 0.375\nsamples = 28\nvalue = [21, 7]"] ;
270 -> 274 ;
275 [label="X[0] <= 33.5\ngini = 0.18\nsamples = 100\nvalue = [90, 10]"] ;
269 -> 275 ;
276 [label="gini = 0.117\nsamples = 32\nvalue = [30, 2]"] ;
275 -> 276 ;
277 [label="X[0] <= 34.5\ngini = 0.208\nsamples = 68\nvalue = [60, 8]"] ;
275 -> 277 ;
278 [label="gini = 0.184\nsamples = 39\nvalue = [35, 4]"] ;
277 -> 278 ;
279 [label="gini = 0.238\nsamples = 29\nvalue = [25, 4]"] ;
277 -> 279 ;
280 [label="X[0] <= 33.5\ngini = 0.289\nsamples = 565\nvalue = [466, 99]"] ;
216 -> 280 ;
281 [label="X[0] <= 30.5\ngini = 0.254\nsamples = 382\nvalue = [325, 57]"] ;
280 -> 281 ;
282 [label="gini = 0.205\nsamples = 95\nvalue = [84, 11]"] ;
281 -> 282 ;
283 [label="X[0] <= 31.5\ngini = 0.269\nsamples = 287\nvalue = [241, 46]"] ;
281 -> 283 ;
284 [label="gini = 0.339\nsamples = 97\nvalue = [76, 21]"] ;
283 -> 284 ;
285 [label="X[0] <= 32.5\ngini = 0.229\nsamples = 190\nvalue = [165, 25]"] ;
283 -> 285 ;
286 [label="gini = 0.245\nsamples = 105\nvalue = [90, 15]"] ;
285 -> 286 ;
287 [label="gini = 0.208\nsamples = 85\nvalue = [75, 10]"] ;
285 -> 287 ;
288 [label="X[0] <= 34.5\ngini = 0.354\nsamples = 183\nvalue = [141, 42]"] ;
280 -> 288 ;
289 [label="gini = 0.378\nsamples = 91\nvalue = [68, 23]"] ;
288 -> 289 ;
290 [label="gini = 0.328\nsamples = 92\nvalue = [73, 19]"] ;
288 -> 290 ;
291 [label="X[0] <= 30.5\ngini = 0.362\nsamples = 122\nvalue = [93, 29]"] ;
215 -> 291 ;
292 [label="gini = 0.434\nsamples = 22\nvalue = [15, 7]"] ;
291 -> 292 ;
293 [label="X[0] <= 33.5\ngini = 0.343\nsamples = 100\nvalue = [78, 22]"] ;
291 -> 293 ;
294 [label="X[0] <= 31.5\ngini = 0.312\nsamples = 62\nvalue = [50, 12]"] ;
293 -> 294 ;
295 [label="gini = 0.291\nsamples = 17\nvalue = [14, 3]"] ;
294 -> 295 ;
296 [label="X[0] <= 32.5\ngini = 0.32\nsamples = 45\nvalue = [36, 9]"] ;
294 -> 296 ;
297 [label="gini = 0.32\nsamples = 25\nvalue = [20, 5]"] ;
296 -> 297 ;
298 [label="gini = 0.32\nsamples = 20\nvalue = [16, 4]"] ;
296 -> 298 ;
299 [label="X[0] <= 34.5\ngini = 0.388\nsamples = 38\nvalue = [28, 10]"] ;
293 -> 299 ;
300 [label="gini = 0.444\nsamples = 18\nvalue = [12, 6]"] ;
299 -> 300 ;
301 [label="gini = 0.32\nsamples = 20\nvalue = [16, 4]"] ;
299 -> 301 ;
302 [label="X[0] <= 31.5\ngini = 0.062\nsamples = 156\nvalue = [151, 5]"] ;
214 -> 302 ;
303 [label="gini = 0.0\nsamples = 57\nvalue = [57, 0]"] ;
302 -> 303 ;
304 [label="X[0] <= 34.5\ngini = 0.096\nsamples = 99\nvalue = [94, 5]"] ;
302 -> 304 ;
305 [label="X[0] <= 32.5\ngini = 0.116\nsamples = 81\nvalue = [76, 5]"] ;
304 -> 305 ;
306 [label="gini = 0.142\nsamples = 26\nvalue = [24, 2]"] ;
305 -> 306 ;
307 [label="X[0] <= 33.5\ngini = 0.103\nsamples = 55\nvalue = [52, 3]"] ;
305 -> 307 ;
308 [label="gini = 0.114\nsamples = 33\nvalue = [31, 2]"] ;
307 -> 308 ;
309 [label="gini = 0.087\nsamples = 22\nvalue = [21, 1]"] ;
307 -> 309 ;
310 [label="gini = 0.0\nsamples = 18\nvalue = [18, 0]"] ;
304 -> 310 ;
311 [label="X[0] <= 33.5\ngini = 0.442\nsamples = 94\nvalue = [63, 31]"] ;
213 -> 311 ;
312 [label="X[0] <= 32.5\ngini = 0.424\nsamples = 72\nvalue = [50, 22]"] ;
311 -> 312 ;
313 [label="X[0] <= 30.5\ngini = 0.457\nsamples = 51\nvalue = [33, 18]"] ;
312 -> 313 ;
314 [label="gini = 0.434\nsamples = 22\nvalue = [15, 7]"] ;
313 -> 314 ;
315 [label="X[0] <= 31.5\ngini = 0.471\nsamples = 29\nvalue = [18, 11]"] ;
313 -> 315 ;
316 [label="gini = 0.486\nsamples = 12\nvalue = [7, 5]"] ;
315 -> 316 ;
317 [label="gini = 0.457\nsamples = 17\nvalue = [11, 6]"] ;
315 -> 317 ;
318 [label="gini = 0.308\nsamples = 21\nvalue = [17, 4]"] ;
312 -> 318 ;
319 [label="X[0] <= 34.5\ngini = 0.483\nsamples = 22\nvalue = [13, 9]"] ;
311 -> 319 ;
320 [label="gini = 0.486\nsamples = 12\nvalue = [7, 5]"] ;
319 -> 320 ;
321 [label="gini = 0.48\nsamples = 10\nvalue = [6, 4]"] ;
319 -> 321 ;
322 [label="X[14] <= 0.5\ngini = 0.374\nsamples = 6388\nvalue = [4795, 1593]"] ;
212 -> 322 ;
323 [label="X[4] <= 0.5\ngini = 0.362\nsamples = 6059\nvalue = [4621, 1438]"] ;
322 -> 323 ;
324 [label="X[12] <= 0.5\ngini = 0.333\nsamples = 4391\nvalue = [3464, 927]"] ;
323 -> 324 ;
325 [label="X[15] <= 0.5\ngini = 0.318\nsamples = 4141\nvalue = [3320, 821]"] ;
324 -> 325 ;
326 [label="X[0] <= 54.5\ngini = 0.302\nsamples = 3467\nvalue = [2823, 644]"] ;
325 -> 326 ;
327 [label="X[2] <= 0.5\ngini = 0.323\nsamples = 2349\nvalue = [1873, 476]"] ;
326 -> 327 ;
328 [label="X[8] <= 0.5\ngini = 0.296\nsamples = 1341\nvalue = [1099, 242]"] ;
327 -> 328 ;
329 [label="X[0] <= 38.5\ngini = 0.268\nsamples = 746\nvalue = [627, 119]"] ;
328 -> 329 ;
330 [label="X[0] <= 37.5\ngini = 0.154\nsamples = 131\nvalue = [120, 11]"] ;
329 -> 330 ;
331 [label="X[10] <= 0.5\ngini = 0.172\nsamples = 95\nvalue = [86, 9]"] ;
330 -> 331 ;
332 [label="X[1] <= 0.5\ngini = 0.175\nsamples = 93\nvalue = [84, 9]"] ;
331 -> 332 ;
333 [label="X[7] <= 0.5\ngini = 0.185\nsamples = 68\nvalue = [61, 7]"] ;
332 -> 333 ;
334 [label="X[0] <= 36.5\ngini = 0.193\nsamples = 37\nvalue = [33, 4]"] ;
333 -> 334 ;
335 [label="gini = 0.355\nsamples = 13\nvalue = [10, 3]"] ;
334 -> 335 ;
336 [label="gini = 0.08\nsamples = 24\nvalue = [23, 1]"] ;
334 -> 336 ;
337 [label="X[0] <= 36.5\ngini = 0.175\nsamples = 31\nvalue = [28, 3]"] ;
333 -> 337 ;
338 [label="gini = 0.0\nsamples = 15\nvalue = [15, 0]"] ;
337 -> 338 ;
339 [label="gini = 0.305\nsamples = 16\nvalue = [13, 3]"] ;
337 -> 339 ;
340 [label="X[0] <= 36.5\ngini = 0.147\nsamples = 25\nvalue = [23, 2]"] ;
332 -> 340 ;
341 [label="gini = 0.111\nsamples = 17\nvalue = [16, 1]"] ;
340 -> 341 ;
342 [label="gini = 0.219\nsamples = 8\nvalue = [7, 1]"] ;
340 -> 342 ;
343 [label="gini = 0.0\nsamples = 2\nvalue = [2, 0]"] ;
331 -> 343 ;
344 [label="X[1] <= 0.5\ngini = 0.105\nsamples = 36\nvalue = [34, 2]"] ;
330 -> 344 ;
345 [label="X[7] <= 0.5\ngini = 0.064\nsamples = 30\nvalue = [29, 1]"] ;
344 -> 345 ;
346 [label="gini = 0.0\nsamples = 14\nvalue = [14, 0]"] ;
345 -> 346 ;
347 [label="gini = 0.117\nsamples = 16\nvalue = [15, 1]"] ;
345 -> 347 ;
348 [label="gini = 0.278\nsamples = 6\nvalue = [5, 1]"] ;
344 -> 348 ;
349 [label="X[6] <= 0.5\ngini = 0.29\nsamples = 615\nvalue = [507, 108]"] ;
329 -> 349 ;
350 [label="X[10] <= 0.5\ngini = 0.256\nsamples = 384\nvalue = [326, 58]"] ;
349 -> 350 ;
351 [label="X[3] <= 0.5\ngini = 0.267\nsamples = 359\nvalue = [302, 57]"] ;
350 -> 351 ;
352 [label="X[0] <= 40.5\ngini = 0.265\nsamples = 357\nvalue = [301, 56]"] ;
351 -> 352 ;
353 [label="X[0] <= 39.5\ngini = 0.32\nsamples = 55\nvalue = [44, 11]"] ;
352 -> 353 ;
354 [label="X[1] <= 0.5\ngini = 0.285\nsamples = 29\nvalue = [24, 5]"] ;
353 -> 354 ;
355 [label="gini = 0.308\nsamples = 21\nvalue = [17, 4]"] ;
354 -> 355 ;
356 [label="gini = 0.219\nsamples = 8\nvalue = [7, 1]"] ;
354 -> 356 ;
357 [label="X[1] <= 0.5\ngini = 0.355\nsamples = 26\nvalue = [20, 6]"] ;
353 -> 357 ;
358 [label="gini = 0.36\nsamples = 17\nvalue = [13, 4]"] ;
357 -> 358 ;
359 [label="gini = 0.346\nsamples = 9\nvalue = [7, 2]"] ;
357 -> 359 ;
360 [label="X[0] <= 49.5\ngini = 0.254\nsamples = 302\nvalue = [257, 45]"] ;
352 -> 360 ;
361 [label="X[0] <= 48.5\ngini = 0.23\nsamples = 204\nvalue = [177, 27]"] ;
360 -> 361 ;
362 [label="X[0] <= 45.5\ngini = 0.243\nsamples = 184\nvalue = [158, 26]"] ;
361 -> 362 ;
363 [label="X[0] <= 43.5\ngini = 0.22\nsamples = 119\nvalue = [104, 15]"] ;
362 -> 363 ;
364 [label="X[0] <= 41.5\ngini = 0.25\nsamples = 82\nvalue = [70, 12]"] ;
363 -> 364 ;
365 [label="X[1] <= 0.5\ngini = 0.191\nsamples = 28\nvalue = [25, 3]"] ;
364 -> 365 ;
366 [label="gini = 0.133\nsamples = 14\nvalue = [13, 1]"] ;
365 -> 366 ;
367 [label="gini = 0.245\nsamples = 14\nvalue = [12, 2]"] ;
365 -> 367 ;
368 [label="X[7] <= 0.5\ngini = 0.278\nsamples = 54\nvalue = [45, 9]"] ;
364 -> 368 ;
369 [label="X[0] <= 42.5\ngini = 0.172\nsamples = 21\nvalue = [19, 2]"] ;
368 -> 369 ;
370 [label="gini = 0.18\nsamples = 10\nvalue = [9, 1]"] ;
369 -> 370 ;
371 [label="gini = 0.165\nsamples = 11\nvalue = [10, 1]"] ;
369 -> 371 ;
372 [label="X[0] <= 42.5\ngini = 0.334\nsamples = 33\nvalue = [26, 7]"] ;
368 -> 372 ;
373 [label="gini = 0.444\nsamples = 12\nvalue = [8, 4]"] ;
372 -> 373 ;
374 [label="gini = 0.245\nsamples = 21\nvalue = [18, 3]"] ;
372 -> 374 ;
375 [label="X[7] <= 0.5\ngini = 0.149\nsamples = 37\nvalue = [34, 3]"] ;
363 -> 375 ;
376 [label="X[0] <= 44.5\ngini = 0.111\nsamples = 17\nvalue = [16, 1]"] ;
375 -> 376 ;
377 [label="gini = 0.219\nsamples = 8\nvalue = [7, 1]"] ;
376 -> 377 ;
378 [label="gini = 0.0\nsamples = 9\nvalue = [9, 0]"] ;
376 -> 378 ;
379 [label="X[0] <= 44.5\ngini = 0.18\nsamples = 20\nvalue = [18, 2]"] ;
375 -> 379 ;
380 [label="gini = 0.0\nsamples = 6\nvalue = [6, 0]"] ;
379 -> 380 ;
381 [label="gini = 0.245\nsamples = 14\nvalue = [12, 2]"] ;
379 -> 381 ;
382 [label="X[7] <= 0.5\ngini = 0.281\nsamples = 65\nvalue = [54, 11]"] ;
362 -> 382 ;
383 [label="X[0] <= 47.5\ngini = 0.417\nsamples = 27\nvalue = [19, 8]"] ;
382 -> 383 ;
384 [label="X[0] <= 46.5\ngini = 0.401\nsamples = 18\nvalue = [13, 5]"] ;
383 -> 384 ;
385 [label="gini = 0.408\nsamples = 7\nvalue = [5, 2]"] ;
384 -> 385 ;
386 [label="gini = 0.397\nsamples = 11\nvalue = [8, 3]"] ;
384 -> 386 ;
387 [label="gini = 0.444\nsamples = 9\nvalue = [6, 3]"] ;
383 -> 387 ;
388 [label="X[0] <= 46.5\ngini = 0.145\nsamples = 38\nvalue = [35, 3]"] ;
382 -> 388 ;
389 [label="gini = 0.245\nsamples = 14\nvalue = [12, 2]"] ;
388 -> 389 ;
390 [label="X[0] <= 47.5\ngini = 0.08\nsamples = 24\nvalue = [23, 1]"] ;
388 -> 390 ;
391 [label="gini = 0.0\nsamples = 8\nvalue = [8, 0]"] ;
390 -> 391 ;
392 [label="gini = 0.117\nsamples = 16\nvalue = [15, 1]"] ;
390 -> 392 ;
393 [label="X[1] <= 0.5\ngini = 0.095\nsamples = 20\nvalue = [19, 1]"] ;
361 -> 393 ;
394 [label="gini = 0.219\nsamples = 8\nvalue = [7, 1]"] ;
393 -> 394 ;
395 [label="gini = 0.0\nsamples = 12\nvalue = [12, 0]"] ;
393 -> 395 ;
396 [label="X[1] <= 0.5\ngini = 0.3\nsamples = 98\nvalue = [80, 18]"] ;
360 -> 396 ;
397 [label="X[0] <= 52.5\ngini = 0.231\nsamples = 45\nvalue = [39, 6]"] ;
396 -> 397 ;
398 [label="X[0] <= 50.5\ngini = 0.272\nsamples = 37\nvalue = [31, 6]"] ;
397 -> 398 ;
399 [label="gini = 0.337\nsamples = 14\nvalue = [11, 3]"] ;
398 -> 399 ;
400 [label="X[0] <= 51.5\ngini = 0.227\nsamples = 23\nvalue = [20, 3]"] ;
398 -> 400 ;
401 [label="gini = 0.245\nsamples = 14\nvalue = [12, 2]"] ;
400 -> 401 ;
402 [label="gini = 0.198\nsamples = 9\nvalue = [8, 1]"] ;
400 -> 402 ;
403 [label="gini = 0.0\nsamples = 8\nvalue = [8, 0]"] ;
397 -> 403 ;
404 [label="X[0] <= 53.5\ngini = 0.35\nsamples = 53\nvalue = [41, 12]"] ;
396 -> 404 ;
405 [label="X[0] <= 52.5\ngini = 0.381\nsamples = 43\nvalue = [32, 11]"] ;
404 -> 405 ;
406 [label="X[0] <= 50.5\ngini = 0.36\nsamples = 34\nvalue = [26, 8]"] ;
405 -> 406 ;
407 [label="gini = 0.32\nsamples = 10\nvalue = [8, 2]"] ;
406 -> 407 ;
408 [label="X[0] <= 51.5\ngini = 0.375\nsamples = 24\nvalue = [18, 6]"] ;
406 -> 408 ;
409 [label="gini = 0.391\nsamples = 15\nvalue = [11, 4]"] ;
408 -> 409 ;
410 [label="gini = 0.346\nsamples = 9\nvalue = [7, 2]"] ;
408 -> 410 ;
411 [label="gini = 0.444\nsamples = 9\nvalue = [6, 3]"] ;
405 -> 411 ;
412 [label="gini = 0.18\nsamples = 10\nvalue = [9, 1]"] ;
404 -> 412 ;
413 [label="X[0] <= 42.5\ngini = 0.5\nsamples = 2\nvalue = [1, 1]"] ;
351 -> 413 ;
414 [label="gini = 0.0\nsamples = 1\nvalue = [1, 0]"] ;
413 -> 414 ;
415 [label="gini = 0.0\nsamples = 1\nvalue = [0, 1]"] ;
413 -> 415 ;
416 [label="X[0] <= 46.5\ngini = 0.077\nsamples = 25\nvalue = [24, 1]"] ;
350 -> 416 ;
417 [label="gini = 0.0\nsamples = 14\nvalue = [14, 0]"] ;
416 -> 417 ;
418 [label="X[0] <= 47.5\ngini = 0.165\nsamples = 11\nvalue = [10, 1]"] ;
416 -> 418 ;
419 [label="gini = 0.444\nsamples = 3\nvalue = [2, 1]"] ;
418 -> 419 ;
420 [label="gini = 0.0\nsamples = 8\nvalue = [8, 0]"] ;
418 -> 420 ;
421 [label="X[0] <= 53.5\ngini = 0.339\nsamples = 231\nvalue = [181, 50]"] ;
349 -> 421 ;
422 [label="X[0] <= 52.5\ngini = 0.33\nsamples = 221\nvalue = [175, 46]"] ;
421 -> 422 ;
423 [label="X[0] <= 50.5\ngini = 0.344\nsamples = 208\nvalue = [162, 46]"] ;
422 -> 423 ;
424 [label="X[0] <= 48.5\ngini = 0.32\nsamples = 185\nvalue = [148, 37]"] ;
423 -> 424 ;
425 [label="X[0] <= 40.5\ngini = 0.34\nsamples = 161\nvalue = [126, 35]"] ;
424 -> 425 ;
426 [label="X[0] <= 39.5\ngini = 0.234\nsamples = 37\nvalue = [32, 5]"] ;
425 -> 426 ;
427 [label="gini = 0.227\nsamples = 23\nvalue = [20, 3]"] ;
426 -> 427 ;
428 [label="gini = 0.245\nsamples = 14\nvalue = [12, 2]"] ;
426 -> 428 ;
429 [label="X[0] <= 47.5\ngini = 0.367\nsamples = 124\nvalue = [94, 30]"] ;
425 -> 429 ;
430 [label="X[0] <= 45.5\ngini = 0.359\nsamples = 115\nvalue = [88, 27]"] ;
429 -> 430 ;
431 [label="X[0] <= 44.5\ngini = 0.38\nsamples = 90\nvalue = [67, 23]"] ;
430 -> 431 ;
432 [label="X[0] <= 41.5\ngini = 0.358\nsamples = 77\nvalue = [59, 18]"] ;
431 -> 432 ;
433 [label="gini = 0.33\nsamples = 24\nvalue = [19, 5]"] ;
432 -> 433 ;
434 [label="X[0] <= 43.5\ngini = 0.37\nsamples = 53\nvalue = [40, 13]"] ;
432 -> 434 ;
435 [label="X[0] <= 42.5\ngini = 0.389\nsamples = 34\nvalue = [25, 9]"] ;
434 -> 435 ;
436 [label="gini = 0.388\nsamples = 19\nvalue = [14, 5]"] ;
435 -> 436 ;
437 [label="gini = 0.391\nsamples = 15\nvalue = [11, 4]"] ;
435 -> 437 ;
438 [label="gini = 0.332\nsamples = 19\nvalue = [15, 4]"] ;
434 -> 438 ;
439 [label="gini = 0.473\nsamples = 13\nvalue = [8, 5]"] ;
431 -> 439 ;
440 [label="X[0] <= 46.5\ngini = 0.269\nsamples = 25\nvalue = [21, 4]"] ;
430 -> 440 ;
441 [label="gini = 0.0\nsamples = 10\nvalue = [10, 0]"] ;
440 -> 441 ;
442 [label="gini = 0.391\nsamples = 15\nvalue = [11, 4]"] ;
440 -> 442 ;
443 [label="gini = 0.444\nsamples = 9\nvalue = [6, 3]"] ;
429 -> 443 ;
444 [label="X[0] <= 49.5\ngini = 0.153\nsamples = 24\nvalue = [22, 2]"] ;
424 -> 444 ;
445 [label="gini = 0.0\nsamples = 11\nvalue = [11, 0]"] ;
444 -> 445 ;
446 [label="gini = 0.26\nsamples = 13\nvalue = [11, 2]"] ;
444 -> 446 ;
447 [label="X[0] <= 51.5\ngini = 0.476\nsamples = 23\nvalue = [14, 9]"] ;
423 -> 447 ;
448 [label="gini = 0.5\nsamples = 12\nvalue = [6, 6]"] ;
447 -> 448 ;
449 [label="gini = 0.397\nsamples = 11\nvalue = [8, 3]"] ;
447 -> 449 ;
450 [label="gini = 0.0\nsamples = 13\nvalue = [13, 0]"] ;
422 -> 450 ;
451 [label="gini = 0.48\nsamples = 10\nvalue = [6, 4]"] ;
421 -> 451 ;
452 [label="X[0] <= 53.5\ngini = 0.328\nsamples = 595\nvalue = [472, 123]"] ;
328 -> 452 ;
453 [label="X[0] <= 39.5\ngini = 0.322\nsamples = 580\nvalue = [463, 117]"] ;
452 -> 453 ;
454 [label="X[0] <= 36.5\ngini = 0.367\nsamples = 161\nvalue = [122, 39]"] ;
453 -> 454 ;
455 [label="gini = 0.282\nsamples = 47\nvalue = [39, 8]"] ;
454 -> 455 ;
456 [label="X[0] <= 38.5\ngini = 0.396\nsamples = 114\nvalue = [83, 31]"] ;
454 -> 456 ;
457 [label="X[0] <= 37.5\ngini = 0.423\nsamples = 69\nvalue = [48, 21]"] ;
456 -> 457 ;
458 [label="gini = 0.433\nsamples = 41\nvalue = [28, 13]"] ;
457 -> 458 ;
459 [label="gini = 0.408\nsamples = 28\nvalue = [20, 8]"] ;
457 -> 459 ;
460 [label="gini = 0.346\nsamples = 45\nvalue = [35, 10]"] ;
456 -> 460 ;
461 [label="X[0] <= 44.5\ngini = 0.303\nsamples = 419\nvalue = [341, 78]"] ;
453 -> 461 ;
462 [label="X[0] <= 40.5\ngini = 0.25\nsamples = 171\nvalue = [146, 25]"] ;
461 -> 462 ;
463 [label="gini = 0.326\nsamples = 39\nvalue = [31, 8]"] ;
462 -> 463 ;
464 [label="X[0] <= 41.5\ngini = 0.224\nsamples = 132\nvalue = [115, 17]"] ;
462 -> 464 ;
465 [label="gini = 0.074\nsamples = 26\nvalue = [25, 1]"] ;
464 -> 465 ;
466 [label="X[0] <= 43.5\ngini = 0.256\nsamples = 106\nvalue = [90, 16]"] ;
464 -> 466 ;
467 [label="X[0] <= 42.5\ngini = 0.296\nsamples = 72\nvalue = [59, 13]"] ;
466 -> 467 ;
468 [label="gini = 0.285\nsamples = 29\nvalue = [24, 5]"] ;
467 -> 468 ;
469 [label="gini = 0.303\nsamples = 43\nvalue = [35, 8]"] ;
467 -> 469 ;
470 [label="gini = 0.161\nsamples = 34\nvalue = [31, 3]"] ;
466 -> 470 ;
471 [label="X[0] <= 52.5\ngini = 0.336\nsamples = 248\nvalue = [195, 53]"] ;
461 -> 471 ;
472 [label="X[0] <= 50.5\ngini = 0.346\nsamples = 229\nvalue = [178, 51]"] ;
471 -> 472 ;
473 [label="X[0] <= 47.5\ngini = 0.32\nsamples = 180\nvalue = [144, 36]"] ;
472 -> 473 ;
474 [label="X[0] <= 46.5\ngini = 0.37\nsamples = 102\nvalue = [77, 25]"] ;
473 -> 474 ;
475 [label="X[0] <= 45.5\ngini = 0.323\nsamples = 74\nvalue = [59, 15]"] ;
474 -> 475 ;
476 [label="gini = 0.401\nsamples = 36\nvalue = [26, 10]"] ;
475 -> 476 ;
477 [label="gini = 0.229\nsamples = 38\nvalue = [33, 5]"] ;
475 -> 477 ;
478 [label="gini = 0.459\nsamples = 28\nvalue = [18, 10]"] ;
474 -> 478 ;
479 [label="X[0] <= 48.5\ngini = 0.242\nsamples = 78\nvalue = [67, 11]"] ;
473 -> 479 ;
480 [label="gini = 0.293\nsamples = 28\nvalue = [23, 5]"] ;
479 -> 480 ;
481 [label="X[0] <= 49.5\ngini = 0.211\nsamples = 50\nvalue = [44, 6]"] ;
479 -> 481 ;
482 [label="gini = 0.153\nsamples = 24\nvalue = [22, 2]"] ;
481 -> 482 ;
483 [label="gini = 0.26\nsamples = 26\nvalue = [22, 4]"] ;
481 -> 483 ;
484 [label="X[0] <= 51.5\ngini = 0.425\nsamples = 49\nvalue = [34, 15]"] ;
472 -> 484 ;
485 [label="gini = 0.423\nsamples = 23\nvalue = [16, 7]"] ;
484 -> 485 ;
486 [label="gini = 0.426\nsamples = 26\nvalue = [18, 8]"] ;
484 -> 486 ;
487 [label="gini = 0.188\nsamples = 19\nvalue = [17, 2]"] ;
471 -> 487 ;
488 [label="gini = 0.48\nsamples = 15\nvalue = [9, 6]"] ;
452 -> 488 ;
489 [label="X[0] <= 52.5\ngini = 0.357\nsamples = 1008\nvalue = [774, 234]"] ;
327 -> 489 ;
490 [label="X[0] <= 37.5\ngini = 0.352\nsamples = 948\nvalue = [732, 216]"] ;
489 -> 490 ;
491 [label="X[0] <= 36.5\ngini = 0.386\nsamples = 134\nvalue = [99, 35]"] ;
490 -> 491 ;
492 [label="gini = 0.355\nsamples = 65\nvalue = [50, 15]"] ;
491 -> 492 ;
493 [label="gini = 0.412\nsamples = 69\nvalue = [49, 20]"] ;
491 -> 493 ;
494 [label="X[0] <= 46.5\ngini = 0.346\nsamples = 814\nvalue = [633, 181]"] ;
490 -> 494 ;
495 [label="X[0] <= 42.5\ngini = 0.333\nsamples = 563\nvalue = [444, 119]"] ;
494 -> 495 ;
496 [label="X[0] <= 40.5\ngini = 0.324\nsamples = 300\nvalue = [239, 61]"] ;
495 -> 496 ;
497 [label="X[0] <= 39.5\ngini = 0.34\nsamples = 189\nvalue = [148, 41]"] ;
496 -> 497 ;
498 [label="X[0] <= 38.5\ngini = 0.324\nsamples = 118\nvalue = [94, 24]"] ;
497 -> 498 ;
499 [label="gini = 0.316\nsamples = 56\nvalue = [45, 11]"] ;
498 -> 499 ;
500 [label="gini = 0.331\nsamples = 62\nvalue = [49, 13]"] ;
498 -> 500 ;
501 [label="gini = 0.364\nsamples = 71\nvalue = [54, 17]"] ;
497 -> 501 ;
502 [label="X[0] <= 41.5\ngini = 0.295\nsamples = 111\nvalue = [91, 20]"] ;
496 -> 502 ;
503 [label="gini = 0.31\nsamples = 47\nvalue = [38, 9]"] ;
502 -> 503 ;
504 [label="gini = 0.285\nsamples = 64\nvalue = [53, 11]"] ;
502 -> 504 ;
505 [label="X[0] <= 43.5\ngini = 0.344\nsamples = 263\nvalue = [205, 58]"] ;
495 -> 505 ;
506 [label="gini = 0.372\nsamples = 73\nvalue = [55, 18]"] ;
505 -> 506 ;
507 [label="X[0] <= 45.5\ngini = 0.332\nsamples = 190\nvalue = [150, 40]"] ;
505 -> 507 ;
508 [label="X[0] <= 44.5\ngini = 0.34\nsamples = 129\nvalue = [101, 28]"] ;
507 -> 508 ;
509 [label="gini = 0.328\nsamples = 63\nvalue = [50, 13]"] ;
508 -> 509 ;
510 [label="gini = 0.351\nsamples = 66\nvalue = [51, 15]"] ;
508 -> 510 ;
511 [label="gini = 0.316\nsamples = 61\nvalue = [49, 12]"] ;
507 -> 511 ;
512 [label="X[0] <= 50.5\ngini = 0.372\nsamples = 251\nvalue = [189, 62]"] ;
494 -> 512 ;
513 [label="X[0] <= 47.5\ngini = 0.396\nsamples = 180\nvalue = [131, 49]"] ;
512 -> 513 ;
514 [label="gini = 0.422\nsamples = 66\nvalue = [46, 20]"] ;
513 -> 514 ;
515 [label="X[0] <= 49.5\ngini = 0.379\nsamples = 114\nvalue = [85, 29]"] ;
513 -> 515 ;
516 [label="X[0] <= 48.5\ngini = 0.387\nsamples = 80\nvalue = [59, 21]"] ;
515 -> 516 ;
517 [label="gini = 0.387\nsamples = 42\nvalue = [31, 11]"] ;
516 -> 517 ;
518 [label="gini = 0.388\nsamples = 38\nvalue = [28, 10]"] ;
516 -> 518 ;
519 [label="gini = 0.36\nsamples = 34\nvalue = [26, 8]"] ;
515 -> 519 ;
520 [label="X[0] <= 51.5\ngini = 0.299\nsamples = 71\nvalue = [58, 13]"] ;
512 -> 520 ;
521 [label="gini = 0.278\nsamples = 36\nvalue = [30, 6]"] ;
520 -> 521 ;
522 [label="gini = 0.32\nsamples = 35\nvalue = [28, 7]"] ;
520 -> 522 ;
523 [label="X[0] <= 53.5\ngini = 0.42\nsamples = 60\nvalue = [42, 18]"] ;
489 -> 523 ;
524 [label="gini = 0.426\nsamples = 39\nvalue = [27, 12]"] ;
523 -> 524 ;
525 [label="gini = 0.408\nsamples = 21\nvalue = [15, 6]"] ;
523 -> 525 ;
526 [label="X[8] <= 0.5\ngini = 0.255\nsamples = 1118\nvalue = [950, 168]"] ;
326 -> 526 ;
527 [label="X[0] <= 62.5\ngini = 0.272\nsamples = 973\nvalue = [815, 158]"] ;
526 -> 527 ;
528 [label="X[1] <= 0.5\ngini = 0.312\nsamples = 466\nvalue = [376, 90]"] ;
527 -> 528 ;
529 [label="X[10] <= 0.5\ngini = 0.28\nsamples = 332\nvalue = [276, 56]"] ;
528 -> 529 ;
530 [label="X[7] <= 0.5\ngini = 0.287\nsamples = 323\nvalue = [267, 56]"] ;
529 -> 530 ;
531 [label="X[0] <= 57.5\ngini = 0.297\nsamples = 276\nvalue = [226, 50]"] ;
530 -> 531 ;
532 [label="X[2] <= 0.5\ngini = 0.286\nsamples = 110\nvalue = [91, 19]"] ;
531 -> 532 ;
533 [label="X[0] <= 55.5\ngini = 0.454\nsamples = 23\nvalue = [15, 8]"] ;
532 -> 533 ;
534 [label="gini = 0.496\nsamples = 11\nvalue = [6, 5]"] ;
533 -> 534 ;
535 [label="X[0] <= 56.5\ngini = 0.375\nsamples = 12\nvalue = [9, 3]"] ;
533 -> 535 ;
536 [label="gini = 0.32\nsamples = 5\nvalue = [4, 1]"] ;
535 -> 536 ;
537 [label="gini = 0.408\nsamples = 7\nvalue = [5, 2]"] ;
535 -> 537 ;
538 [label="X[0] <= 55.5\ngini = 0.221\nsamples = 87\nvalue = [76, 11]"] ;
532 -> 538 ;
539 [label="gini = 0.153\nsamples = 36\nvalue = [33, 3]"] ;
538 -> 539 ;
540 [label="X[0] <= 56.5\ngini = 0.265\nsamples = 51\nvalue = [43, 8]"] ;
538 -> 540 ;
541 [label="gini = 0.328\nsamples = 29\nvalue = [23, 6]"] ;
540 -> 541 ;
542 [label="gini = 0.165\nsamples = 22\nvalue = [20, 2]"] ;
540 -> 542 ;
543 [label="X[2] <= 0.5\ngini = 0.304\nsamples = 166\nvalue = [135, 31]"] ;
531 -> 543 ;
544 [label="X[0] <= 61.5\ngini = 0.2\nsamples = 62\nvalue = [55, 7]"] ;
543 -> 544 ;
545 [label="X[0] <= 59.5\ngini = 0.174\nsamples = 52\nvalue = [47, 5]"] ;
544 -> 545 ;
546 [label="X[0] <= 58.5\ngini = 0.231\nsamples = 30\nvalue = [26, 4]"] ;
545 -> 546 ;
547 [label="gini = 0.219\nsamples = 16\nvalue = [14, 2]"] ;
546 -> 547 ;
548 [label="gini = 0.245\nsamples = 14\nvalue = [12, 2]"] ;
546 -> 548 ;
549 [label="X[0] <= 60.5\ngini = 0.087\nsamples = 22\nvalue = [21, 1]"] ;
545 -> 549 ;
550 [label="gini = 0.0\nsamples = 10\nvalue = [10, 0]"] ;
549 -> 550 ;
551 [label="gini = 0.153\nsamples = 12\nvalue = [11, 1]"] ;
549 -> 551 ;
552 [label="gini = 0.32\nsamples = 10\nvalue = [8, 2]"] ;
544 -> 552 ;
553 [label="X[0] <= 61.5\ngini = 0.355\nsamples = 104\nvalue = [80, 24]"] ;
543 -> 553 ;
554 [label="X[0] <= 60.5\ngini = 0.372\nsamples = 81\nvalue = [61, 20]"] ;
553 -> 554 ;
555 [label="X[0] <= 58.5\ngini = 0.359\nsamples = 64\nvalue = [49, 15]"] ;
554 -> 555 ;
556 [label="gini = 0.35\nsamples = 31\nvalue = [24, 7]"] ;
555 -> 556 ;
557 [label="X[0] <= 59.5\ngini = 0.367\nsamples = 33\nvalue = [25, 8]"] ;
555 -> 557 ;
558 [label="gini = 0.363\nsamples = 21\nvalue = [16, 5]"] ;
557 -> 558 ;
559 [label="gini = 0.375\nsamples = 12\nvalue = [9, 3]"] ;
557 -> 559 ;
560 [label="gini = 0.415\nsamples = 17\nvalue = [12, 5]"] ;
554 -> 560 ;
561 [label="gini = 0.287\nsamples = 23\nvalue = [19, 4]"] ;
553 -> 561 ;
562 [label="X[0] <= 59.5\ngini = 0.223\nsamples = 47\nvalue = [41, 6]"] ;
530 -> 562 ;
563 [label="X[0] <= 58.5\ngini = 0.278\nsamples = 30\nvalue = [25, 5]"] ;
562 -> 563 ;
564 [label="X[0] <= 56.5\ngini = 0.204\nsamples = 26\nvalue = [23, 3]"] ;
563 -> 564 ;
565 [label="X[0] <= 55.5\ngini = 0.142\nsamples = 13\nvalue = [12, 1]"] ;
564 -> 565 ;
566 [label="gini = 0.278\nsamples = 6\nvalue = [5, 1]"] ;
565 -> 566 ;
567 [label="gini = 0.0\nsamples = 7\nvalue = [7, 0]"] ;
565 -> 567 ;
568 [label="X[0] <= 57.5\ngini = 0.26\nsamples = 13\nvalue = [11, 2]"] ;
564 -> 568 ;
569 [label="gini = 0.278\nsamples = 6\nvalue = [5, 1]"] ;
568 -> 569 ;
570 [label="gini = 0.245\nsamples = 7\nvalue = [6, 1]"] ;
568 -> 570 ;
571 [label="gini = 0.5\nsamples = 4\nvalue = [2, 2]"] ;
563 -> 571 ;
572 [label="X[0] <= 60.5\ngini = 0.111\nsamples = 17\nvalue = [16, 1]"] ;
562 -> 572 ;
573 [label="gini = 0.0\nsamples = 6\nvalue = [6, 0]"] ;
572 -> 573 ;
574 [label="X[0] <= 61.5\ngini = 0.165\nsamples = 11\nvalue = [10, 1]"] ;
572 -> 574 ;
575 [label="gini = 0.278\nsamples = 6\nvalue = [5, 1]"] ;
574 -> 575 ;
576 [label="gini = 0.0\nsamples = 5\nvalue = [5, 0]"] ;
574 -> 576 ;
577 [label="gini = 0.0\nsamples = 9\nvalue = [9, 0]"] ;
529 -> 577 ;
578 [label="X[0] <= 58.5\ngini = 0.379\nsamples = 134\nvalue = [100, 34]"] ;
528 -> 578 ;
579 [label="X[0] <= 55.5\ngini = 0.278\nsamples = 48\nvalue = [40, 8]"] ;
578 -> 579 ;
580 [label="gini = 0.426\nsamples = 13\nvalue = [9, 4]"] ;
579 -> 580 ;
581 [label="X[0] <= 56.5\ngini = 0.202\nsamples = 35\nvalue = [31, 4]"] ;
579 -> 581 ;
582 [label="gini = 0.0\nsamples = 9\nvalue = [9, 0]"] ;
581 -> 582 ;
583 [label="X[0] <= 57.5\ngini = 0.26\nsamples = 26\nvalue = [22, 4]"] ;
581 -> 583 ;
584 [label="gini = 0.278\nsamples = 12\nvalue = [10, 2]"] ;
583 -> 584 ;
585 [label="gini = 0.245\nsamples = 14\nvalue = [12, 2]"] ;
583 -> 585 ;
586 [label="X[0] <= 59.5\ngini = 0.422\nsamples = 86\nvalue = [60, 26]"] ;
578 -> 586 ;
587 [label="gini = 0.5\nsamples = 12\nvalue = [6, 6]"] ;
586 -> 587 ;
588 [label="X[0] <= 60.5\ngini = 0.394\nsamples = 74\nvalue = [54, 20]"] ;
586 -> 588 ;
589 [label="gini = 0.291\nsamples = 17\nvalue = [14, 3]"] ;
588 -> 589 ;
590 [label="X[0] <= 61.5\ngini = 0.419\nsamples = 57\nvalue = [40, 17]"] ;
588 -> 590 ;
591 [label="gini = 0.476\nsamples = 23\nvalue = [14, 9]"] ;
590 -> 591 ;
592 [label="gini = 0.36\nsamples = 34\nvalue = [26, 8]"] ;
590 -> 592 ;
593 [label="X[2] <= 0.5\ngini = 0.232\nsamples = 507\nvalue = [439, 68]"] ;
527 -> 593 ;
594 [label="X[10] <= 0.5\ngini = 0.253\nsamples = 397\nvalue = [338, 59]"] ;
593 -> 594 ;
595 [label="X[0] <= 65.5\ngini = 0.26\nsamples = 385\nvalue = [326, 59]"] ;
594 -> 595 ;
596 [label="X[0] <= 63.5\ngini = 0.305\nsamples = 101\nvalue = [82, 19]"] ;
595 -> 596 ;
597 [label="X[1] <= 0.5\ngini = 0.229\nsamples = 38\nvalue = [33, 5]"] ;
596 -> 597 ;
598 [label="X[7] <= 0.5\ngini = 0.142\nsamples = 13\nvalue = [12, 1]"] ;
597 -> 598 ;
599 [label="gini = 0.165\nsamples = 11\nvalue = [10, 1]"] ;
598 -> 599 ;
600 [label="gini = 0.0\nsamples = 2\nvalue = [2, 0]"] ;
598 -> 600 ;
601 [label="gini = 0.269\nsamples = 25\nvalue = [21, 4]"] ;
597 -> 601 ;
602 [label="X[1] <= 0.5\ngini = 0.346\nsamples = 63\nvalue = [49, 14]"] ;
596 -> 602 ;
603 [label="X[0] <= 64.5\ngini = 0.375\nsamples = 16\nvalue = [12, 4]"] ;
602 -> 603 ;
604 [label="X[6] <= 0.5\ngini = 0.408\nsamples = 7\nvalue = [5, 2]"] ;
603 -> 604 ;
605 [label="gini = 0.0\nsamples = 1\nvalue = [1, 0]"] ;
604 -> 605 ;
606 [label="gini = 0.444\nsamples = 6\nvalue = [4, 2]"] ;
604 -> 606 ;
607 [label="X[6] <= 0.5\ngini = 0.346\nsamples = 9\nvalue = [7, 2]"] ;
603 -> 607 ;
608 [label="gini = 0.444\nsamples = 3\nvalue = [2, 1]"] ;
607 -> 608 ;
609 [label="gini = 0.278\nsamples = 6\nvalue = [5, 1]"] ;
607 -> 609 ;
610 [label="X[0] <= 64.5\ngini = 0.335\nsamples = 47\nvalue = [37, 10]"] ;
602 -> 610 ;
611 [label="gini = 0.33\nsamples = 24\nvalue = [19, 5]"] ;
610 -> 611 ;
612 [label="gini = 0.34\nsamples = 23\nvalue = [18, 5]"] ;
610 -> 612 ;
613 [label="X[0] <= 75.5\ngini = 0.242\nsamples = 284\nvalue = [244, 40]"] ;
595 -> 613 ;
614 [label="X[7] <= 0.5\ngini = 0.223\nsamples = 219\nvalue = [191, 28]"] ;
613 -> 614 ;
615 [label="X[0] <= 72.5\ngini = 0.207\nsamples = 205\nvalue = [181, 24]"] ;
614 -> 615 ;
616 [label="X[0] <= 67.5\ngini = 0.225\nsamples = 170\nvalue = [148, 22]"] ;
615 -> 616 ;
617 [label="X[1] <= 0.5\ngini = 0.172\nsamples = 63\nvalue = [57, 6]"] ;
616 -> 617 ;
618 [label="X[0] <= 66.5\ngini = 0.165\nsamples = 11\nvalue = [10, 1]"] ;
617 -> 618 ;
619 [label="gini = 0.444\nsamples = 3\nvalue = [2, 1]"] ;
618 -> 619 ;
620 [label="gini = 0.0\nsamples = 8\nvalue = [8, 0]"] ;
618 -> 620 ;
621 [label="X[0] <= 66.5\ngini = 0.174\nsamples = 52\nvalue = [47, 5]"] ;
617 -> 621 ;
622 [label="gini = 0.128\nsamples = 29\nvalue = [27, 2]"] ;
621 -> 622 ;
623 [label="gini = 0.227\nsamples = 23\nvalue = [20, 3]"] ;
621 -> 623 ;
624 [label="X[6] <= 0.5\ngini = 0.254\nsamples = 107\nvalue = [91, 16]"] ;
616 -> 624 ;
625 [label="X[0] <= 70.5\ngini = 0.27\nsamples = 87\nvalue = [73, 14]"] ;
624 -> 625 ;
626 [label="X[0] <= 68.5\ngini = 0.289\nsamples = 57\nvalue = [47, 10]"] ;
625 -> 626 ;
627 [label="gini = 0.236\nsamples = 22\nvalue = [19, 3]"] ;
626 -> 627 ;
628 [label="X[0] <= 69.5\ngini = 0.32\nsamples = 35\nvalue = [28, 7]"] ;
626 -> 628 ;
629 [label="gini = 0.346\nsamples = 18\nvalue = [14, 4]"] ;
628 -> 629 ;
630 [label="gini = 0.291\nsamples = 17\nvalue = [14, 3]"] ;
628 -> 630 ;
631 [label="X[0] <= 71.5\ngini = 0.231\nsamples = 30\nvalue = [26, 4]"] ;
625 -> 631 ;
632 [label="gini = 0.142\nsamples = 13\nvalue = [12, 1]"] ;
631 -> 632 ;
633 [label="gini = 0.291\nsamples = 17\nvalue = [14, 3]"] ;
631 -> 633 ;
634 [label="X[0] <= 70.5\ngini = 0.18\nsamples = 20\nvalue = [18, 2]"] ;
624 -> 634 ;
635 [label="X[0] <= 69.5\ngini = 0.219\nsamples = 16\nvalue = [14, 2]"] ;
634 -> 635 ;
636 [label="X[0] <= 68.5\ngini = 0.153\nsamples = 12\nvalue = [11, 1]"] ;
635 -> 636 ;
637 [label="gini = 0.198\nsamples = 9\nvalue = [8, 1]"] ;
636 -> 637 ;
638 [label="gini = 0.0\nsamples = 3\nvalue = [3, 0]"] ;
636 -> 638 ;
639 [label="gini = 0.375\nsamples = 4\nvalue = [3, 1]"] ;
635 -> 639 ;
640 [label="gini = 0.0\nsamples = 4\nvalue = [4, 0]"] ;
634 -> 640 ;
641 [label="X[1] <= 0.5\ngini = 0.108\nsamples = 35\nvalue = [33, 2]"] ;
615 -> 641 ;
642 [label="gini = 0.0\nsamples = 7\nvalue = [7, 0]"] ;
641 -> 642 ;
643 [label="X[0] <= 74.5\ngini = 0.133\nsamples = 28\nvalue = [26, 2]"] ;
641 -> 643 ;
644 [label="X[0] <= 73.5\ngini = 0.1\nsamples = 19\nvalue = [18, 1]"] ;
643 -> 644 ;
645 [label="gini = 0.165\nsamples = 11\nvalue = [10, 1]"] ;
644 -> 645 ;
646 [label="gini = 0.0\nsamples = 8\nvalue = [8, 0]"] ;
644 -> 646 ;
647 [label="gini = 0.198\nsamples = 9\nvalue = [8, 1]"] ;
643 -> 647 ;
648 [label="X[0] <= 66.5\ngini = 0.408\nsamples = 14\nvalue = [10, 4]"] ;
614 -> 648 ;
649 [label="gini = 0.0\nsamples = 3\nvalue = [3, 0]"] ;
648 -> 649 ;
650 [label="X[0] <= 71.0\ngini = 0.463\nsamples = 11\nvalue = [7, 4]"] ;
648 -> 650 ;
651 [label="X[0] <= 69.5\ngini = 0.494\nsamples = 9\nvalue = [5, 4]"] ;
650 -> 651 ;
652 [label="X[0] <= 68.5\ngini = 0.408\nsamples = 7\nvalue = [5, 2]"] ;
651 -> 652 ;
653 [label="X[0] <= 67.5\ngini = 0.5\nsamples = 4\nvalue = [2, 2]"] ;
652 -> 653 ;
654 [label="gini = 0.444\nsamples = 3\nvalue = [2, 1]"] ;
653 -> 654 ;
655 [label="gini = 0.0\nsamples = 1\nvalue = [0, 1]"] ;
653 -> 655 ;
656 [label="gini = 0.0\nsamples = 3\nvalue = [3, 0]"] ;
652 -> 656 ;
657 [label="gini = 0.0\nsamples = 2\nvalue = [0, 2]"] ;
651 -> 657 ;
658 [label="gini = 0.0\nsamples = 2\nvalue = [2, 0]"] ;
650 -> 658 ;
659 [label="X[0] <= 79.5\ngini = 0.301\nsamples = 65\nvalue = [53, 12]"] ;
613 -> 659 ;
660 [label="X[0] <= 78.5\ngini = 0.36\nsamples = 34\nvalue = [26, 8]"] ;
659 -> 660 ;
661 [label="X[0] <= 77.5\ngini = 0.302\nsamples = 27\nvalue = [22, 5]"] ;
660 -> 661 ;
662 [label="X[0] <= 76.5\ngini = 0.388\nsamples = 19\nvalue = [14, 5]"] ;
661 -> 662 ;
663 [label="X[1] <= 0.5\ngini = 0.298\nsamples = 11\nvalue = [9, 2]"] ;
662 -> 663 ;
664 [label="gini = 0.0\nsamples = 2\nvalue = [2, 0]"] ;
663 -> 664 ;
665 [label="gini = 0.346\nsamples = 9\nvalue = [7, 2]"] ;
663 -> 665 ;
666 [label="X[1] <= 0.5\ngini = 0.469\nsamples = 8\nvalue = [5, 3]"] ;
662 -> 666 ;
667 [label="gini = 0.0\nsamples = 1\nvalue = [0, 1]"] ;
666 -> 667 ;
668 [label="gini = 0.408\nsamples = 7\nvalue = [5, 2]"] ;
666 -> 668 ;
669 [label="gini = 0.0\nsamples = 8\nvalue = [8, 0]"] ;
661 -> 669 ;
670 [label="gini = 0.49\nsamples = 7\nvalue = [4, 3]"] ;
660 -> 670 ;
671 [label="X[0] <= 82.5\ngini = 0.225\nsamples = 31\nvalue = [27, 4]"] ;
659 -> 671 ;
672 [label="X[0] <= 81.5\ngini = 0.18\nsamples = 20\nvalue = [18, 2]"] ;
671 -> 672 ;
673 [label="X[1] <= 0.5\ngini = 0.26\nsamples = 13\nvalue = [11, 2]"] ;
672 -> 673 ;
674 [label="gini = 0.0\nsamples = 3\nvalue = [3, 0]"] ;
673 -> 674 ;
675 [label="X[0] <= 80.5\ngini = 0.32\nsamples = 10\nvalue = [8, 2]"] ;
673 -> 675 ;
676 [label="gini = 0.32\nsamples = 5\nvalue = [4, 1]"] ;
675 -> 676 ;
677 [label="gini = 0.32\nsamples = 5\nvalue = [4, 1]"] ;
675 -> 677 ;
678 [label="gini = 0.0\nsamples = 7\nvalue = [7, 0]"] ;
672 -> 678 ;
679 [label="X[0] <= 83.5\ngini = 0.298\nsamples = 11\nvalue = [9, 2]"] ;
671 -> 679 ;
680 [label="X[1] <= 0.5\ngini = 0.5\nsamples = 2\nvalue = [1, 1]"] ;
679 -> 680 ;
681 [label="gini = 0.0\nsamples = 1\nvalue = [0, 1]"] ;
680 -> 681 ;
682 [label="gini = 0.0\nsamples = 1\nvalue = [1, 0]"] ;
680 -> 682 ;
683 [label="X[1] <= 0.5\ngini = 0.198\nsamples = 9\nvalue = [8, 1]"] ;
679 -> 683 ;
684 [label="gini = 0.0\nsamples = 2\nvalue = [2, 0]"] ;
683 -> 684 ;
685 [label="X[0] <= 87.0\ngini = 0.245\nsamples = 7\nvalue = [6, 1]"] ;
683 -> 685 ;
686 [label="gini = 0.0\nsamples = 2\nvalue = [2, 0]"] ;
685 -> 686 ;
687 [label="gini = 0.32\nsamples = 5\nvalue = [4, 1]"] ;
685 -> 687 ;
688 [label="gini = 0.0\nsamples = 12\nvalue = [12, 0]"] ;
594 -> 688 ;
689 [label="X[0] <= 70.5\ngini = 0.15\nsamples = 110\nvalue = [101, 9]"] ;
593 -> 689 ;
690 [label="X[0] <= 66.5\ngini = 0.094\nsamples = 81\nvalue = [77, 4]"] ;
689 -> 690 ;
691 [label="X[0] <= 65.5\ngini = 0.142\nsamples = 52\nvalue = [48, 4]"] ;
690 -> 691 ;
692 [label="X[0] <= 63.5\ngini = 0.122\nsamples = 46\nvalue = [43, 3]"] ;
691 -> 692 ;
693 [label="gini = 0.153\nsamples = 12\nvalue = [11, 1]"] ;
692 -> 693 ;
694 [label="X[0] <= 64.5\ngini = 0.111\nsamples = 34\nvalue = [32, 2]"] ;
692 -> 694 ;
695 [label="gini = 0.1\nsamples = 19\nvalue = [18, 1]"] ;
694 -> 695 ;
696 [label="gini = 0.124\nsamples = 15\nvalue = [14, 1]"] ;
694 -> 696 ;
697 [label="gini = 0.278\nsamples = 6\nvalue = [5, 1]"] ;
691 -> 697 ;
698 [label="gini = 0.0\nsamples = 29\nvalue = [29, 0]"] ;
690 -> 698 ;
699 [label="X[0] <= 76.5\ngini = 0.285\nsamples = 29\nvalue = [24, 5]"] ;
689 -> 699 ;
700 [label="X[0] <= 71.5\ngini = 0.43\nsamples = 16\nvalue = [11, 5]"] ;
699 -> 700 ;
701 [label="gini = 0.5\nsamples = 2\nvalue = [1, 1]"] ;
700 -> 701 ;
702 [label="X[0] <= 75.5\ngini = 0.408\nsamples = 14\nvalue = [10, 4]"] ;
700 -> 702 ;
703 [label="X[0] <= 74.5\ngini = 0.375\nsamples = 12\nvalue = [9, 3]"] ;
702 -> 703 ;
704 [label="X[0] <= 72.5\ngini = 0.42\nsamples = 10\nvalue = [7, 3]"] ;
703 -> 704 ;
705 [label="gini = 0.32\nsamples = 5\nvalue = [4, 1]"] ;
704 -> 705 ;
706 [label="X[0] <= 73.5\ngini = 0.48\nsamples = 5\nvalue = [3, 2]"] ;
704 -> 706 ;
707 [label="gini = 0.0\nsamples = 1\nvalue = [0, 1]"] ;
706 -> 707 ;
708 [label="gini = 0.375\nsamples = 4\nvalue = [3, 1]"] ;
706 -> 708 ;
709 [label="gini = 0.0\nsamples = 2\nvalue = [2, 0]"] ;
703 -> 709 ;
710 [label="gini = 0.5\nsamples = 2\nvalue = [1, 1]"] ;
702 -> 710 ;
711 [label="gini = 0.0\nsamples = 13\nvalue = [13, 0]"] ;
699 -> 711 ;
712 [label="X[0] <= 55.5\ngini = 0.128\nsamples = 145\nvalue = [135, 10]"] ;
526 -> 712 ;
713 [label="gini = 0.0\nsamples = 17\nvalue = [17, 0]"] ;
712 -> 713 ;
714 [label="X[0] <= 70.5\ngini = 0.144\nsamples = 128\nvalue = [118, 10]"] ;
712 -> 714 ;
715 [label="X[0] <= 69.5\ngini = 0.156\nsamples = 117\nvalue = [107, 10]"] ;
714 -> 715 ;
716 [label="X[0] <= 58.5\ngini = 0.144\nsamples = 115\nvalue = [106, 9]"] ;
715 -> 716 ;
717 [label="X[0] <= 56.5\ngini = 0.187\nsamples = 48\nvalue = [43, 5]"] ;
716 -> 717 ;
718 [label="gini = 0.095\nsamples = 20\nvalue = [19, 1]"] ;
717 -> 718 ;
719 [label="X[0] <= 57.5\ngini = 0.245\nsamples = 28\nvalue = [24, 4]"] ;
717 -> 719 ;
720 [label="gini = 0.32\nsamples = 10\nvalue = [8, 2]"] ;
719 -> 720 ;
721 [label="gini = 0.198\nsamples = 18\nvalue = [16, 2]"] ;
719 -> 721 ;
722 [label="X[0] <= 59.5\ngini = 0.112\nsamples = 67\nvalue = [63, 4]"] ;
716 -> 722 ;
723 [label="gini = 0.0\nsamples = 17\nvalue = [17, 0]"] ;
722 -> 723 ;
724 [label="X[0] <= 66.0\ngini = 0.147\nsamples = 50\nvalue = [46, 4]"] ;
722 -> 724 ;
725 [label="X[0] <= 62.5\ngini = 0.169\nsamples = 43\nvalue = [39, 4]"] ;
724 -> 725 ;
726 [label="X[0] <= 60.5\ngini = 0.114\nsamples = 33\nvalue = [31, 2]"] ;
725 -> 726 ;
727 [label="gini = 0.219\nsamples = 16\nvalue = [14, 2]"] ;
726 -> 727 ;
728 [label="gini = 0.0\nsamples = 17\nvalue = [17, 0]"] ;
726 -> 728 ;
729 [label="X[0] <= 63.5\ngini = 0.32\nsamples = 10\nvalue = [8, 2]"] ;
725 -> 729 ;
730 [label="gini = 0.375\nsamples = 4\nvalue = [3, 1]"] ;
729 -> 730 ;
731 [label="X[0] <= 64.5\ngini = 0.278\nsamples = 6\nvalue = [5, 1]"] ;
729 -> 731 ;
732 [label="gini = 0.0\nsamples = 1\nvalue = [1, 0]"] ;
731 -> 732 ;
733 [label="gini = 0.32\nsamples = 5\nvalue = [4, 1]"] ;
731 -> 733 ;
734 [label="gini = 0.0\nsamples = 7\nvalue = [7, 0]"] ;
724 -> 734 ;
735 [label="gini = 0.5\nsamples = 2\nvalue = [1, 1]"] ;
715 -> 735 ;
736 [label="gini = 0.0\nsamples = 11\nvalue = [11, 0]"] ;
714 -> 736 ;
737 [label="X[0] <= 63.5\ngini = 0.387\nsamples = 674\nvalue = [497, 177]"] ;
325 -> 737 ;
738 [label="X[0] <= 44.5\ngini = 0.397\nsamples = 634\nvalue = [461, 173]"] ;
737 -> 738 ;
739 [label="X[0] <= 41.5\ngini = 0.362\nsamples = 291\nvalue = [222, 69]"] ;
738 -> 739 ;
740 [label="X[0] <= 38.5\ngini = 0.395\nsamples = 192\nvalue = [140, 52]"] ;
739 -> 740 ;
741 [label="X[0] <= 37.5\ngini = 0.355\nsamples = 104\nvalue = [80, 24]"] ;
740 -> 741 ;
742 [label="X[0] <= 36.5\ngini = 0.372\nsamples = 77\nvalue = [58, 19]"] ;
741 -> 742 ;
743 [label="gini = 0.368\nsamples = 37\nvalue = [28, 9]"] ;
742 -> 743 ;
744 [label="gini = 0.375\nsamples = 40\nvalue = [30, 10]"] ;
742 -> 744 ;
745 [label="gini = 0.302\nsamples = 27\nvalue = [22, 5]"] ;
741 -> 745 ;
746 [label="X[0] <= 40.5\ngini = 0.434\nsamples = 88\nvalue = [60, 28]"] ;
740 -> 746 ;
747 [label="X[0] <= 39.5\ngini = 0.423\nsamples = 56\nvalue = [39, 17]"] ;
746 -> 747 ;
748 [label="gini = 0.428\nsamples = 29\nvalue = [20, 9]"] ;
747 -> 748 ;
749 [label="gini = 0.417\nsamples = 27\nvalue = [19, 8]"] ;
747 -> 749 ;
750 [label="gini = 0.451\nsamples = 32\nvalue = [21, 11]"] ;
746 -> 750 ;
751 [label="X[0] <= 42.5\ngini = 0.284\nsamples = 99\nvalue = [82, 17]"] ;
739 -> 751 ;
752 [label="gini = 0.239\nsamples = 36\nvalue = [31, 5]"] ;
751 -> 752 ;
753 [label="X[0] <= 43.5\ngini = 0.308\nsamples = 63\nvalue = [51, 12]"] ;
751 -> 753 ;
754 [label="gini = 0.285\nsamples = 29\nvalue = [24, 5]"] ;
753 -> 754 ;
755 [label="gini = 0.327\nsamples = 34\nvalue = [27, 7]"] ;
753 -> 755 ;
756 [label="X[0] <= 60.5\ngini = 0.423\nsamples = 343\nvalue = [239, 104]"] ;
738 -> 756 ;
757 [label="X[0] <= 56.5\ngini = 0.43\nsamples = 307\nvalue = [211, 96]"] ;
756 -> 757 ;
758 [label="X[0] <= 49.5\ngini = 0.415\nsamples = 242\nvalue = [171, 71]"] ;
757 -> 758 ;
759 [label="X[0] <= 48.5\ngini = 0.4\nsamples = 105\nvalue = [76, 29]"] ;
758 -> 759 ;
760 [label="X[0] <= 47.5\ngini = 0.416\nsamples = 95\nvalue = [67, 28]"] ;
759 -> 760 ;
761 [label="X[0] <= 45.5\ngini = 0.405\nsamples = 71\nvalue = [51, 20]"] ;
760 -> 761 ;
762 [label="gini = 0.444\nsamples = 21\nvalue = [14, 7]"] ;
761 -> 762 ;
763 [label="X[0] <= 46.5\ngini = 0.385\nsamples = 50\nvalue = [37, 13]"] ;
761 -> 763 ;
764 [label="gini = 0.366\nsamples = 29\nvalue = [22, 7]"] ;
763 -> 764 ;
765 [label="gini = 0.408\nsamples = 21\nvalue = [15, 6]"] ;
763 -> 765 ;
766 [label="gini = 0.444\nsamples = 24\nvalue = [16, 8]"] ;
760 -> 766 ;
767 [label="gini = 0.18\nsamples = 10\nvalue = [9, 1]"] ;
759 -> 767 ;
768 [label="X[0] <= 50.5\ngini = 0.425\nsamples = 137\nvalue = [95, 42]"] ;
758 -> 768 ;
769 [label="gini = 0.483\nsamples = 22\nvalue = [13, 9]"] ;
768 -> 769 ;
770 [label="X[0] <= 52.5\ngini = 0.409\nsamples = 115\nvalue = [82, 33]"] ;
768 -> 770 ;
771 [label="X[0] <= 51.5\ngini = 0.368\nsamples = 37\nvalue = [28, 9]"] ;
770 -> 771 ;
772 [label="gini = 0.365\nsamples = 25\nvalue = [19, 6]"] ;
771 -> 772 ;
773 [label="gini = 0.375\nsamples = 12\nvalue = [9, 3]"] ;
771 -> 773 ;
774 [label="X[0] <= 54.5\ngini = 0.426\nsamples = 78\nvalue = [54, 24]"] ;
770 -> 774 ;
775 [label="X[0] <= 53.5\ngini = 0.454\nsamples = 43\nvalue = [28, 15]"] ;
774 -> 775 ;
776 [label="gini = 0.475\nsamples = 18\nvalue = [11, 7]"] ;
775 -> 776 ;
777 [label="gini = 0.435\nsamples = 25\nvalue = [17, 8]"] ;
775 -> 777 ;
778 [label="X[0] <= 55.5\ngini = 0.382\nsamples = 35\nvalue = [26, 9]"] ;
774 -> 778 ;
779 [label="gini = 0.363\nsamples = 21\nvalue = [16, 5]"] ;
778 -> 779 ;
780 [label="gini = 0.408\nsamples = 14\nvalue = [10, 4]"] ;
778 -> 780 ;
781 [label="X[0] <= 57.5\ngini = 0.473\nsamples = 65\nvalue = [40, 25]"] ;
757 -> 781 ;
782 [label="gini = 0.5\nsamples = 18\nvalue = [9, 9]"] ;
781 -> 782 ;
783 [label="X[0] <= 58.5\ngini = 0.449\nsamples = 47\nvalue = [31, 16]"] ;
781 -> 783 ;
784 [label="gini = 0.32\nsamples = 15\nvalue = [12, 3]"] ;
783 -> 784 ;
785 [label="X[0] <= 59.5\ngini = 0.482\nsamples = 32\nvalue = [19, 13]"] ;
783 -> 785 ;
786 [label="gini = 0.498\nsamples = 15\nvalue = [8, 7]"] ;
785 -> 786 ;
787 [label="gini = 0.457\nsamples = 17\nvalue = [11, 6]"] ;
785 -> 787 ;
788 [label="X[0] <= 61.5\ngini = 0.346\nsamples = 36\nvalue = [28, 8]"] ;
756 -> 788 ;
789 [label="gini = 0.36\nsamples = 17\nvalue = [13, 4]"] ;
788 -> 789 ;
790 [label="X[0] <= 62.5\ngini = 0.332\nsamples = 19\nvalue = [15, 4]"] ;
788 -> 790 ;
791 [label="gini = 0.32\nsamples = 10\nvalue = [8, 2]"] ;
790 -> 791 ;
792 [label="gini = 0.346\nsamples = 9\nvalue = [7, 2]"] ;
790 -> 792 ;
793 [label="X[0] <= 69.5\ngini = 0.18\nsamples = 40\nvalue = [36, 4]"] ;
737 -> 793 ;
794 [label="X[0] <= 65.5\ngini = 0.231\nsamples = 30\nvalue = [26, 4]"] ;
793 -> 794 ;
795 [label="X[0] <= 64.5\ngini = 0.153\nsamples = 12\nvalue = [11, 1]"] ;
794 -> 795 ;
796 [label="gini = 0.245\nsamples = 7\nvalue = [6, 1]"] ;
795 -> 796 ;
797 [label="gini = 0.0\nsamples = 5\nvalue = [5, 0]"] ;
795 -> 797 ;
798 [label="X[0] <= 67.5\ngini = 0.278\nsamples = 18\nvalue = [15, 3]"] ;
794 -> 798 ;
799 [label="X[0] <= 66.5\ngini = 0.32\nsamples = 10\nvalue = [8, 2]"] ;
798 -> 799 ;
800 [label="gini = 0.32\nsamples = 5\nvalue = [4, 1]"] ;
799 -> 800 ;
801 [label="gini = 0.32\nsamples = 5\nvalue = [4, 1]"] ;
799 -> 801 ;
802 [label="X[0] <= 68.5\ngini = 0.219\nsamples = 8\nvalue = [7, 1]"] ;
798 -> 802 ;
803 [label="gini = 0.0\nsamples = 3\nvalue = [3, 0]"] ;
802 -> 803 ;
804 [label="gini = 0.32\nsamples = 5\nvalue = [4, 1]"] ;
802 -> 804 ;
805 [label="gini = 0.0\nsamples = 10\nvalue = [10, 0]"] ;
793 -> 805 ;
806 [label="X[0] <= 58.5\ngini = 0.488\nsamples = 250\nvalue = [144, 106]"] ;
324 -> 806 ;
807 [label="X[0] <= 51.5\ngini = 0.5\nsamples = 202\nvalue = [104, 98]"] ;
806 -> 807 ;
808 [label="X[0] <= 38.5\ngini = 0.497\nsamples = 171\nvalue = [92, 79]"] ;
807 -> 808 ;
809 [label="X[0] <= 36.5\ngini = 0.498\nsamples = 43\nvalue = [20, 23]"] ;
808 -> 809 ;
810 [label="gini = 0.484\nsamples = 17\nvalue = [7, 10]"] ;
809 -> 810 ;
811 [label="X[0] <= 37.5\ngini = 0.5\nsamples = 26\nvalue = [13, 13]"] ;
809 -> 811 ;
812 [label="gini = 0.49\nsamples = 14\nvalue = [8, 6]"] ;
811 -> 812 ;
813 [label="gini = 0.486\nsamples = 12\nvalue = [5, 7]"] ;
811 -> 813 ;
814 [label="X[0] <= 39.5\ngini = 0.492\nsamples = 128\nvalue = [72, 56]"] ;
808 -> 814 ;
815 [label="gini = 0.32\nsamples = 10\nvalue = [8, 2]"] ;
814 -> 815 ;
816 [label="X[0] <= 50.5\ngini = 0.496\nsamples = 118\nvalue = [64, 54]"] ;
814 -> 816 ;
817 [label="X[0] <= 45.5\ngini = 0.498\nsamples = 111\nvalue = [59, 52]"] ;
816 -> 817 ;
818 [label="X[0] <= 42.5\ngini = 0.487\nsamples = 62\nvalue = [36, 26]"] ;
817 -> 818 ;
819 [label="X[0] <= 41.5\ngini = 0.497\nsamples = 28\nvalue = [15, 13]"] ;
818 -> 819 ;
820 [label="X[0] <= 40.5\ngini = 0.494\nsamples = 18\nvalue = [10, 8]"] ;
819 -> 820 ;
821 [label="gini = 0.49\nsamples = 7\nvalue = [4, 3]"] ;
820 -> 821 ;
822 [label="gini = 0.496\nsamples = 11\nvalue = [6, 5]"] ;
820 -> 822 ;
823 [label="gini = 0.5\nsamples = 10\nvalue = [5, 5]"] ;
819 -> 823 ;
824 [label="X[0] <= 44.5\ngini = 0.472\nsamples = 34\nvalue = [21, 13]"] ;
818 -> 824 ;
825 [label="X[0] <= 43.5\ngini = 0.444\nsamples = 21\nvalue = [14, 7]"] ;
824 -> 825 ;
826 [label="gini = 0.42\nsamples = 10\nvalue = [7, 3]"] ;
825 -> 826 ;
827 [label="gini = 0.463\nsamples = 11\nvalue = [7, 4]"] ;
825 -> 827 ;
828 [label="gini = 0.497\nsamples = 13\nvalue = [7, 6]"] ;
824 -> 828 ;
829 [label="X[0] <= 46.5\ngini = 0.498\nsamples = 49\nvalue = [23, 26]"] ;
817 -> 829 ;
830 [label="gini = 0.469\nsamples = 16\nvalue = [6, 10]"] ;
829 -> 830 ;
831 [label="X[0] <= 47.5\ngini = 0.5\nsamples = 33\nvalue = [17, 16]"] ;
829 -> 831 ;
832 [label="gini = 0.49\nsamples = 7\nvalue = [4, 3]"] ;
831 -> 832 ;
833 [label="X[0] <= 48.5\ngini = 0.5\nsamples = 26\nvalue = [13, 13]"] ;
831 -> 833 ;
834 [label="gini = 0.5\nsamples = 6\nvalue = [3, 3]"] ;
833 -> 834 ;
835 [label="X[0] <= 49.5\ngini = 0.5\nsamples = 20\nvalue = [10, 10]"] ;
833 -> 835 ;
836 [label="gini = 0.5\nsamples = 8\nvalue = [4, 4]"] ;
835 -> 836 ;
837 [label="gini = 0.5\nsamples = 12\nvalue = [6, 6]"] ;
835 -> 837 ;
838 [label="gini = 0.408\nsamples = 7\nvalue = [5, 2]"] ;
816 -> 838 ;
839 [label="X[0] <= 52.5\ngini = 0.475\nsamples = 31\nvalue = [12, 19]"] ;
807 -> 839 ;
840 [label="gini = 0.298\nsamples = 11\nvalue = [2, 9]"] ;
839 -> 840 ;
841 [label="X[0] <= 57.5\ngini = 0.5\nsamples = 20\nvalue = [10, 10]"] ;
839 -> 841 ;
842 [label="X[0] <= 55.5\ngini = 0.499\nsamples = 19\nvalue = [10, 9]"] ;
841 -> 842 ;
843 [label="X[0] <= 53.5\ngini = 0.5\nsamples = 14\nvalue = [7, 7]"] ;
842 -> 843 ;
844 [label="gini = 0.5\nsamples = 4\nvalue = [2, 2]"] ;
843 -> 844 ;
845 [label="X[0] <= 54.5\ngini = 0.5\nsamples = 10\nvalue = [5, 5]"] ;
843 -> 845 ;
846 [label="gini = 0.5\nsamples = 6\nvalue = [3, 3]"] ;
845 -> 846 ;
847 [label="gini = 0.5\nsamples = 4\nvalue = [2, 2]"] ;
845 -> 847 ;
848 [label="X[0] <= 56.5\ngini = 0.48\nsamples = 5\nvalue = [3, 2]"] ;
842 -> 848 ;
849 [label="gini = 0.0\nsamples = 1\nvalue = [1, 0]"] ;
848 -> 849 ;
850 [label="gini = 0.5\nsamples = 4\nvalue = [2, 2]"] ;
848 -> 850 ;
851 [label="gini = 0.0\nsamples = 1\nvalue = [0, 1]"] ;
841 -> 851 ;
852 [label="X[0] <= 71.5\ngini = 0.278\nsamples = 48\nvalue = [40, 8]"] ;
806 -> 852 ;
853 [label="X[0] <= 66.5\ngini = 0.32\nsamples = 40\nvalue = [32, 8]"] ;
852 -> 853 ;
854 [label="X[0] <= 63.5\ngini = 0.264\nsamples = 32\nvalue = [27, 5]"] ;
853 -> 854 ;
855 [label="X[0] <= 62.5\ngini = 0.33\nsamples = 24\nvalue = [19, 5]"] ;
854 -> 855 ;
856 [label="X[0] <= 60.5\ngini = 0.278\nsamples = 18\nvalue = [15, 3]"] ;
855 -> 856 ;
857 [label="X[0] <= 59.5\ngini = 0.355\nsamples = 13\nvalue = [10, 3]"] ;
856 -> 857 ;
858 [label="gini = 0.32\nsamples = 5\nvalue = [4, 1]"] ;
857 -> 858 ;
859 [label="gini = 0.375\nsamples = 8\nvalue = [6, 2]"] ;
857 -> 859 ;
860 [label="gini = 0.0\nsamples = 5\nvalue = [5, 0]"] ;
856 -> 860 ;
861 [label="gini = 0.444\nsamples = 6\nvalue = [4, 2]"] ;
855 -> 861 ;
862 [label="gini = 0.0\nsamples = 8\nvalue = [8, 0]"] ;
854 -> 862 ;
863 [label="X[0] <= 67.5\ngini = 0.469\nsamples = 8\nvalue = [5, 3]"] ;
853 -> 863 ;
864 [label="gini = 0.5\nsamples = 4\nvalue = [2, 2]"] ;
863 -> 864 ;
865 [label="X[0] <= 70.5\ngini = 0.375\nsamples = 4\nvalue = [3, 1]"] ;
863 -> 865 ;
866 [label="gini = 0.0\nsamples = 2\nvalue = [2, 0]"] ;
865 -> 866 ;
867 [label="gini = 0.5\nsamples = 2\nvalue = [1, 1]"] ;
865 -> 867 ;
868 [label="gini = 0.0\nsamples = 8\nvalue = [8, 0]"] ;
852 -> 868 ;
869 [label="X[0] <= 43.5\ngini = 0.425\nsamples = 1668\nvalue = [1157, 511]"] ;
323 -> 869 ;
870 [label="X[0] <= 38.5\ngini = 0.38\nsamples = 705\nvalue = [525, 180]"] ;
869 -> 870 ;
871 [label="X[0] <= 36.5\ngini = 0.343\nsamples = 314\nvalue = [245, 69]"] ;
870 -> 871 ;
872 [label="gini = 0.303\nsamples = 102\nvalue = [83, 19]"] ;
871 -> 872 ;
873 [label="X[0] <= 37.5\ngini = 0.36\nsamples = 212\nvalue = [162, 50]"] ;
871 -> 873 ;
874 [label="gini = 0.392\nsamples = 101\nvalue = [74, 27]"] ;
873 -> 874 ;
875 [label="gini = 0.329\nsamples = 111\nvalue = [88, 23]"] ;
873 -> 875 ;
876 [label="X[0] <= 41.5\ngini = 0.407\nsamples = 391\nvalue = [280, 111]"] ;
870 -> 876 ;
877 [label="X[0] <= 40.5\ngini = 0.416\nsamples = 247\nvalue = [174, 73]"] ;
876 -> 877 ;
878 [label="X[0] <= 39.5\ngini = 0.397\nsamples = 161\nvalue = [117, 44]"] ;
877 -> 878 ;
879 [label="gini = 0.428\nsamples = 74\nvalue = [51, 23]"] ;
878 -> 879 ;
880 [label="gini = 0.366\nsamples = 87\nvalue = [66, 21]"] ;
878 -> 880 ;
881 [label="gini = 0.447\nsamples = 86\nvalue = [57, 29]"] ;
877 -> 881 ;
882 [label="X[0] <= 42.5\ngini = 0.389\nsamples = 144\nvalue = [106, 38]"] ;
876 -> 882 ;
883 [label="gini = 0.375\nsamples = 72\nvalue = [54, 18]"] ;
882 -> 883 ;
884 [label="gini = 0.401\nsamples = 72\nvalue = [52, 20]"] ;
882 -> 884 ;
885 [label="X[0] <= 61.5\ngini = 0.451\nsamples = 963\nvalue = [632, 331]"] ;
869 -> 885 ;
886 [label="X[0] <= 51.5\ngini = 0.463\nsamples = 866\nvalue = [550, 316]"] ;
885 -> 886 ;
887 [label="X[0] <= 46.5\ngini = 0.472\nsamples = 498\nvalue = [308, 190]"] ;
886 -> 887 ;
888 [label="X[0] <= 45.5\ngini = 0.461\nsamples = 197\nvalue = [126, 71]"] ;
887 -> 888 ;
889 [label="X[0] <= 44.5\ngini = 0.478\nsamples = 132\nvalue = [80, 52]"] ;
888 -> 889 ;
890 [label="gini = 0.485\nsamples = 58\nvalue = [34, 24]"] ;
889 -> 890 ;
891 [label="gini = 0.47\nsamples = 74\nvalue = [46, 28]"] ;
889 -> 891 ;
892 [label="gini = 0.414\nsamples = 65\nvalue = [46, 19]"] ;
888 -> 892 ;
893 [label="X[0] <= 47.5\ngini = 0.478\nsamples = 301\nvalue = [182, 119]"] ;
887 -> 893 ;
894 [label="gini = 0.485\nsamples = 70\nvalue = [41, 29]"] ;
893 -> 894 ;
895 [label="X[0] <= 49.5\ngini = 0.476\nsamples = 231\nvalue = [141, 90]"] ;
893 -> 895 ;
896 [label="X[0] <= 48.5\ngini = 0.476\nsamples = 110\nvalue = [67, 43]"] ;
895 -> 896 ;
897 [label="gini = 0.475\nsamples = 54\nvalue = [33, 21]"] ;
896 -> 897 ;
898 [label="gini = 0.477\nsamples = 56\nvalue = [34, 22]"] ;
896 -> 898 ;
899 [label="X[0] <= 50.5\ngini = 0.475\nsamples = 121\nvalue = [74, 47]"] ;
895 -> 899 ;
900 [label="gini = 0.475\nsamples = 62\nvalue = [38, 24]"] ;
899 -> 900 ;
901 [label="gini = 0.476\nsamples = 59\nvalue = [36, 23]"] ;
899 -> 901 ;
902 [label="X[0] <= 55.5\ngini = 0.45\nsamples = 368\nvalue = [242, 126]"] ;
886 -> 902 ;
903 [label="X[0] <= 52.5\ngini = 0.434\nsamples = 182\nvalue = [124, 58]"] ;
902 -> 903 ;
904 [label="gini = 0.413\nsamples = 48\nvalue = [34, 14]"] ;
903 -> 904 ;
905 [label="X[0] <= 53.5\ngini = 0.441\nsamples = 134\nvalue = [90, 44]"] ;
903 -> 905 ;
906 [label="gini = 0.461\nsamples = 50\nvalue = [32, 18]"] ;
905 -> 906 ;
907 [label="X[0] <= 54.5\ngini = 0.427\nsamples = 84\nvalue = [58, 26]"] ;
905 -> 907 ;
908 [label="gini = 0.432\nsamples = 38\nvalue = [26, 12]"] ;
907 -> 908 ;
909 [label="gini = 0.423\nsamples = 46\nvalue = [32, 14]"] ;
907 -> 909 ;
910 [label="X[0] <= 59.5\ngini = 0.464\nsamples = 186\nvalue = [118, 68]"] ;
902 -> 910 ;
911 [label="X[0] <= 58.5\ngini = 0.476\nsamples = 138\nvalue = [84, 54]"] ;
910 -> 911 ;
912 [label="X[0] <= 57.5\ngini = 0.469\nsamples = 96\nvalue = [60, 36]"] ;
911 -> 912 ;
913 [label="X[0] <= 56.5\ngini = 0.478\nsamples = 71\nvalue = [43, 28]"] ;
912 -> 913 ;
914 [label="gini = 0.486\nsamples = 36\nvalue = [21, 15]"] ;
913 -> 914 ;
915 [label="gini = 0.467\nsamples = 35\nvalue = [22, 13]"] ;
913 -> 915 ;
916 [label="gini = 0.435\nsamples = 25\nvalue = [17, 8]"] ;
912 -> 916 ;
917 [label="gini = 0.49\nsamples = 42\nvalue = [24, 18]"] ;
911 -> 917 ;
918 [label="X[0] <= 60.5\ngini = 0.413\nsamples = 48\nvalue = [34, 14]"] ;
910 -> 918 ;
919 [label="gini = 0.408\nsamples = 35\nvalue = [25, 10]"] ;
918 -> 919 ;
920 [label="gini = 0.426\nsamples = 13\nvalue = [9, 4]"] ;
918 -> 920 ;
921 [label="X[0] <= 68.5\ngini = 0.261\nsamples = 97\nvalue = [82, 15]"] ;
885 -> 921 ;
922 [label="X[0] <= 66.5\ngini = 0.219\nsamples = 72\nvalue = [63, 9]"] ;
921 -> 922 ;
923 [label="X[0] <= 62.5\ngini = 0.239\nsamples = 65\nvalue = [56, 9]"] ;
922 -> 923 ;
924 [label="gini = 0.291\nsamples = 17\nvalue = [14, 3]"] ;
923 -> 924 ;
925 [label="X[0] <= 63.5\ngini = 0.219\nsamples = 48\nvalue = [42, 6]"] ;
923 -> 925 ;
926 [label="gini = 0.198\nsamples = 18\nvalue = [16, 2]"] ;
925 -> 926 ;
927 [label="X[0] <= 65.5\ngini = 0.231\nsamples = 30\nvalue = [26, 4]"] ;
925 -> 927 ;
928 [label="X[0] <= 64.5\ngini = 0.227\nsamples = 23\nvalue = [20, 3]"] ;
927 -> 928 ;
929 [label="gini = 0.231\nsamples = 15\nvalue = [13, 2]"] ;
928 -> 929 ;
930 [label="gini = 0.219\nsamples = 8\nvalue = [7, 1]"] ;
928 -> 930 ;
931 [label="gini = 0.245\nsamples = 7\nvalue = [6, 1]"] ;
927 -> 931 ;
932 [label="gini = 0.0\nsamples = 7\nvalue = [7, 0]"] ;
922 -> 932 ;
933 [label="X[0] <= 69.5\ngini = 0.365\nsamples = 25\nvalue = [19, 6]"] ;
921 -> 933 ;
934 [label="gini = 0.5\nsamples = 2\nvalue = [1, 1]"] ;
933 -> 934 ;
935 [label="X[0] <= 77.5\ngini = 0.34\nsamples = 23\nvalue = [18, 5]"] ;
933 -> 935 ;
936 [label="X[0] <= 74.5\ngini = 0.305\nsamples = 16\nvalue = [13, 3]"] ;
935 -> 936 ;
937 [label="X[0] <= 73.5\ngini = 0.375\nsamples = 12\nvalue = [9, 3]"] ;
936 -> 937 ;
938 [label="X[0] <= 71.5\ngini = 0.298\nsamples = 11\nvalue = [9, 2]"] ;
937 -> 938 ;
939 [label="X[0] <= 70.5\ngini = 0.346\nsamples = 9\nvalue = [7, 2]"] ;
938 -> 939 ;
940 [label="gini = 0.375\nsamples = 4\nvalue = [3, 1]"] ;
939 -> 940 ;
941 [label="gini = 0.32\nsamples = 5\nvalue = [4, 1]"] ;
939 -> 941 ;
942 [label="gini = 0.0\nsamples = 2\nvalue = [2, 0]"] ;
938 -> 942 ;
943 [label="gini = 0.0\nsamples = 1\nvalue = [0, 1]"] ;
937 -> 943 ;
944 [label="gini = 0.0\nsamples = 4\nvalue = [4, 0]"] ;
936 -> 944 ;
945 [label="X[0] <= 79.0\ngini = 0.408\nsamples = 7\nvalue = [5, 2]"] ;
935 -> 945 ;
946 [label="gini = 0.5\nsamples = 2\nvalue = [1, 1]"] ;
945 -> 946 ;
947 [label="X[0] <= 86.0\ngini = 0.32\nsamples = 5\nvalue = [4, 1]"] ;
945 -> 947 ;
948 [label="gini = 0.0\nsamples = 2\nvalue = [2, 0]"] ;
947 -> 948 ;
949 [label="gini = 0.444\nsamples = 3\nvalue = [2, 1]"] ;
947 -> 949 ;
950 [label="X[0] <= 36.5\ngini = 0.498\nsamples = 329\nvalue = [174, 155]"] ;
322 -> 950 ;
951 [label="gini = 0.188\nsamples = 19\nvalue = [17, 2]"] ;
950 -> 951 ;
952 [label="X[0] <= 61.5\ngini = 0.5\nsamples = 310\nvalue = [157, 153]"] ;
950 -> 952 ;
953 [label="X[0] <= 49.5\ngini = 0.5\nsamples = 295\nvalue = [144, 151]"] ;
952 -> 953 ;
954 [label="X[0] <= 48.5\ngini = 0.498\nsamples = 207\nvalue = [110, 97]"] ;
953 -> 954 ;
955 [label="X[0] <= 47.5\ngini = 0.499\nsamples = 201\nvalue = [105, 96]"] ;
954 -> 955 ;
956 [label="X[0] <= 45.5\ngini = 0.498\nsamples = 193\nvalue = [103, 90]"] ;
955 -> 956 ;
957 [label="X[0] <= 43.5\ngini = 0.5\nsamples = 163\nvalue = [84, 79]"] ;
956 -> 957 ;
958 [label="X[0] <= 38.5\ngini = 0.497\nsamples = 136\nvalue = [73, 63]"] ;
957 -> 958 ;
959 [label="X[0] <= 37.5\ngini = 0.499\nsamples = 40\nvalue = [19, 21]"] ;
958 -> 959 ;
960 [label="gini = 0.499\nsamples = 25\nvalue = [12, 13]"] ;
959 -> 960 ;
961 [label="gini = 0.498\nsamples = 15\nvalue = [7, 8]"] ;
959 -> 961 ;
962 [label="X[0] <= 39.5\ngini = 0.492\nsamples = 96\nvalue = [54, 42]"] ;
958 -> 962 ;
963 [label="gini = 0.337\nsamples = 14\nvalue = [11, 3]"] ;
962 -> 963 ;
964 [label="X[0] <= 42.5\ngini = 0.499\nsamples = 82\nvalue = [43, 39]"] ;
962 -> 964 ;
965 [label="X[0] <= 40.5\ngini = 0.5\nsamples = 66\nvalue = [33, 33]"] ;
964 -> 965 ;
966 [label="gini = 0.496\nsamples = 22\nvalue = [12, 10]"] ;
965 -> 966 ;
967 [label="X[0] <= 41.5\ngini = 0.499\nsamples = 44\nvalue = [21, 23]"] ;
965 -> 967 ;
968 [label="gini = 0.499\nsamples = 23\nvalue = [11, 12]"] ;
967 -> 968 ;
969 [label="gini = 0.499\nsamples = 21\nvalue = [10, 11]"] ;
967 -> 969 ;
970 [label="gini = 0.469\nsamples = 16\nvalue = [10, 6]"] ;
964 -> 970 ;
971 [label="X[0] <= 44.5\ngini = 0.483\nsamples = 27\nvalue = [11, 16]"] ;
957 -> 971 ;
972 [label="gini = 0.43\nsamples = 16\nvalue = [5, 11]"] ;
971 -> 972 ;
973 [label="gini = 0.496\nsamples = 11\nvalue = [6, 5]"] ;
971 -> 973 ;
974 [label="X[0] <= 46.5\ngini = 0.464\nsamples = 30\nvalue = [19, 11]"] ;
956 -> 974 ;
975 [label="gini = 0.472\nsamples = 21\nvalue = [13, 8]"] ;
974 -> 975 ;
976 [label="gini = 0.444\nsamples = 9\nvalue = [6, 3]"] ;
974 -> 976 ;
977 [label="gini = 0.375\nsamples = 8\nvalue = [2, 6]"] ;
955 -> 977 ;
978 [label="gini = 0.278\nsamples = 6\nvalue = [5, 1]"] ;
954 -> 978 ;
979 [label="X[0] <= 50.5\ngini = 0.474\nsamples = 88\nvalue = [34, 54]"] ;
953 -> 979 ;
980 [label="gini = 0.32\nsamples = 10\nvalue = [2, 8]"] ;
979 -> 980 ;
981 [label="X[0] <= 53.5\ngini = 0.484\nsamples = 78\nvalue = [32, 46]"] ;
979 -> 981 ;
982 [label="X[0] <= 52.5\ngini = 0.499\nsamples = 27\nvalue = [14, 13]"] ;
981 -> 982 ;
983 [label="X[0] <= 51.5\ngini = 0.499\nsamples = 21\nvalue = [10, 11]"] ;
982 -> 983 ;
984 [label="gini = 0.5\nsamples = 14\nvalue = [7, 7]"] ;
983 -> 984 ;
985 [label="gini = 0.49\nsamples = 7\nvalue = [3, 4]"] ;
983 -> 985 ;
986 [label="gini = 0.444\nsamples = 6\nvalue = [4, 2]"] ;
982 -> 986 ;
987 [label="X[0] <= 54.5\ngini = 0.457\nsamples = 51\nvalue = [18, 33]"] ;
981 -> 987 ;
988 [label="gini = 0.219\nsamples = 8\nvalue = [1, 7]"] ;
987 -> 988 ;
989 [label="X[0] <= 55.5\ngini = 0.478\nsamples = 43\nvalue = [17, 26]"] ;
987 -> 989 ;
990 [label="gini = 0.486\nsamples = 12\nvalue = [7, 5]"] ;
989 -> 990 ;
991 [label="X[0] <= 56.5\ngini = 0.437\nsamples = 31\nvalue = [10, 21]"] ;
989 -> 991 ;
992 [label="gini = 0.32\nsamples = 5\nvalue = [1, 4]"] ;
991 -> 992 ;
993 [label="X[0] <= 59.5\ngini = 0.453\nsamples = 26\nvalue = [9, 17]"] ;
991 -> 993 ;
994 [label="X[0] <= 58.5\ngini = 0.43\nsamples = 16\nvalue = [5, 11]"] ;
993 -> 994 ;
995 [label="X[0] <= 57.5\ngini = 0.444\nsamples = 9\nvalue = [3, 6]"] ;
994 -> 995 ;
996 [label="gini = 0.444\nsamples = 6\nvalue = [2, 4]"] ;
995 -> 996 ;
997 [label="gini = 0.444\nsamples = 3\nvalue = [1, 2]"] ;
995 -> 997 ;
998 [label="gini = 0.408\nsamples = 7\nvalue = [2, 5]"] ;
994 -> 998 ;
999 [label="X[0] <= 60.5\ngini = 0.48\nsamples = 10\nvalue = [4, 6]"] ;
993 -> 999 ;
1000 [label="gini = 0.5\nsamples = 6\nvalue = [3, 3]"] ;
999 -> 1000 ;
1001 [label="gini = 0.375\nsamples = 4\nvalue = [1, 3]"] ;
999 -> 1001 ;
1002 [label="X[0] <= 67.5\ngini = 0.231\nsamples = 15\nvalue = [13, 2]"] ;
952 -> 1002 ;
1003 [label="X[0] <= 62.5\ngini = 0.32\nsamples = 10\nvalue = [8, 2]"] ;
1002 -> 1003 ;
1004 [label="gini = 0.0\nsamples = 4\nvalue = [4, 0]"] ;
1003 -> 1004 ;
1005 [label="X[0] <= 63.5\ngini = 0.444\nsamples = 6\nvalue = [4, 2]"] ;
1003 -> 1005 ;
1006 [label="gini = 0.5\nsamples = 2\nvalue = [1, 1]"] ;
1005 -> 1006 ;
1007 [label="X[0] <= 65.0\ngini = 0.375\nsamples = 4\nvalue = [3, 1]"] ;
1005 -> 1007 ;
1008 [label="gini = 0.0\nsamples = 2\nvalue = [2, 0]"] ;
1007 -> 1008 ;
1009 [label="gini = 0.5\nsamples = 2\nvalue = [1, 1]"] ;
1007 -> 1009 ;
1010 [label="gini = 0.0\nsamples = 5\nvalue = [5, 0]"] ;
1002 -> 1010 ;
1011 [label="X[0] <= 53.5\ngini = 0.107\nsamples = 1327\nvalue = [1252, 75]"] ;
211 -> 1011 ;
1012 [label="X[0] <= 44.5\ngini = 0.126\nsamples = 1018\nvalue = [949, 69]"] ;
1011 -> 1012 ;
1013 [label="X[0] <= 43.5\ngini = 0.101\nsamples = 730\nvalue = [691, 39]"] ;
1012 -> 1013 ;
1014 [label="X[0] <= 33.5\ngini = 0.106\nsamples = 698\nvalue = [659, 39]"] ;
1013 -> 1014 ;
1015 [label="X[0] <= 31.5\ngini = 0.081\nsamples = 236\nvalue = [226, 10]"] ;
1014 -> 1015 ;
1016 [label="X[0] <= 30.5\ngini = 0.122\nsamples = 123\nvalue = [115, 8]"] ;
1015 -> 1016 ;
1017 [label="gini = 0.113\nsamples = 50\nvalue = [47, 3]"] ;
1016 -> 1017 ;
1018 [label="gini = 0.128\nsamples = 73\nvalue = [68, 5]"] ;
1016 -> 1018 ;
1019 [label="X[0] <= 32.5\ngini = 0.035\nsamples = 113\nvalue = [111, 2]"] ;
1015 -> 1019 ;
1020 [label="gini = 0.043\nsamples = 45\nvalue = [44, 1]"] ;
1019 -> 1020 ;
1021 [label="gini = 0.029\nsamples = 68\nvalue = [67, 1]"] ;
1019 -> 1021 ;
1022 [label="X[0] <= 35.5\ngini = 0.118\nsamples = 462\nvalue = [433, 29]"] ;
1014 -> 1022 ;
1023 [label="X[0] <= 34.5\ngini = 0.152\nsamples = 109\nvalue = [100, 9]"] ;
1022 -> 1023 ;
1024 [label="gini = 0.133\nsamples = 42\nvalue = [39, 3]"] ;
1023 -> 1024 ;
1025 [label="gini = 0.163\nsamples = 67\nvalue = [61, 6]"] ;
1023 -> 1025 ;
1026 [label="X[0] <= 42.5\ngini = 0.107\nsamples = 353\nvalue = [333, 20]"] ;
1022 -> 1026 ;
1027 [label="X[0] <= 38.5\ngini = 0.101\nsamples = 320\nvalue = [303, 17]"] ;
1026 -> 1027 ;
1028 [label="X[0] <= 37.5\ngini = 0.085\nsamples = 157\nvalue = [150, 7]"] ;
1027 -> 1028 ;
1029 [label="X[0] <= 36.5\ngini = 0.117\nsamples = 112\nvalue = [105, 7]"] ;
1028 -> 1029 ;
1030 [label="gini = 0.113\nsamples = 50\nvalue = [47, 3]"] ;
1029 -> 1030 ;
1031 [label="gini = 0.121\nsamples = 62\nvalue = [58, 4]"] ;
1029 -> 1031 ;
1032 [label="gini = 0.0\nsamples = 45\nvalue = [45, 0]"] ;
1028 -> 1032 ;
1033 [label="X[0] <= 41.5\ngini = 0.115\nsamples = 163\nvalue = [153, 10]"] ;
1027 -> 1033 ;
1034 [label="X[0] <= 40.5\ngini = 0.126\nsamples = 133\nvalue = [124, 9]"] ;
1033 -> 1034 ;
1035 [label="X[0] <= 39.5\ngini = 0.12\nsamples = 94\nvalue = [88, 6]"] ;
1034 -> 1035 ;
1036 [label="gini = 0.13\nsamples = 43\nvalue = [40, 3]"] ;
1035 -> 1036 ;
1037 [label="gini = 0.111\nsamples = 51\nvalue = [48, 3]"] ;
1035 -> 1037 ;
1038 [label="gini = 0.142\nsamples = 39\nvalue = [36, 3]"] ;
1034 -> 1038 ;
1039 [label="gini = 0.064\nsamples = 30\nvalue = [29, 1]"] ;
1033 -> 1039 ;
1040 [label="gini = 0.165\nsamples = 33\nvalue = [30, 3]"] ;
1026 -> 1040 ;
1041 [label="gini = 0.0\nsamples = 32\nvalue = [32, 0]"] ;
1013 -> 1041 ;
1042 [label="X[0] <= 48.5\ngini = 0.187\nsamples = 288\nvalue = [258, 30]"] ;
1012 -> 1042 ;
1043 [label="X[0] <= 47.5\ngini = 0.224\nsamples = 148\nvalue = [129, 19]"] ;
1042 -> 1043 ;
1044 [label="X[0] <= 45.5\ngini = 0.203\nsamples = 122\nvalue = [108, 14]"] ;
1043 -> 1044 ;
1045 [label="gini = 0.169\nsamples = 43\nvalue = [39, 4]"] ;
1044 -> 1045 ;
1046 [label="X[0] <= 46.5\ngini = 0.221\nsamples = 79\nvalue = [69, 10]"] ;
1044 -> 1046 ;
1047 [label="gini = 0.278\nsamples = 30\nvalue = [25, 5]"] ;
1046 -> 1047 ;
1048 [label="gini = 0.183\nsamples = 49\nvalue = [44, 5]"] ;
1046 -> 1048 ;
1049 [label="gini = 0.311\nsamples = 26\nvalue = [21, 5]"] ;
1043 -> 1049 ;
1050 [label="X[0] <= 51.5\ngini = 0.145\nsamples = 140\nvalue = [129, 11]"] ;
1042 -> 1050 ;
1051 [label="X[0] <= 50.5\ngini = 0.074\nsamples = 78\nvalue = [75, 3]"] ;
1050 -> 1051 ;
1052 [label="X[0] <= 49.5\ngini = 0.038\nsamples = 51\nvalue = [50, 1]"] ;
1051 -> 1052 ;
1053 [label="gini = 0.069\nsamples = 28\nvalue = [27, 1]"] ;
1052 -> 1053 ;
1054 [label="gini = 0.0\nsamples = 23\nvalue = [23, 0]"] ;
1052 -> 1054 ;
1055 [label="gini = 0.137\nsamples = 27\nvalue = [25, 2]"] ;
1051 -> 1055 ;
1056 [label="X[0] <= 52.5\ngini = 0.225\nsamples = 62\nvalue = [54, 8]"] ;
1050 -> 1056 ;
1057 [label="gini = 0.213\nsamples = 33\nvalue = [29, 4]"] ;
1056 -> 1057 ;
1058 [label="gini = 0.238\nsamples = 29\nvalue = [25, 4]"] ;
1056 -> 1058 ;
1059 [label="X[0] <= 55.5\ngini = 0.038\nsamples = 309\nvalue = [303, 6]"] ;
1011 -> 1059 ;
1060 [label="gini = 0.0\nsamples = 50\nvalue = [50, 0]"] ;
1059 -> 1060 ;
1061 [label="X[0] <= 69.5\ngini = 0.045\nsamples = 259\nvalue = [253, 6]"] ;
1059 -> 1061 ;
1062 [label="X[0] <= 68.5\ngini = 0.053\nsamples = 219\nvalue = [213, 6]"] ;
1061 -> 1062 ;
1063 [label="X[0] <= 64.5\ngini = 0.046\nsamples = 214\nvalue = [209, 5]"] ;
1062 -> 1063 ;
1064 [label="X[0] <= 63.5\ngini = 0.053\nsamples = 185\nvalue = [180, 5]"] ;
1063 -> 1064 ;
1065 [label="X[0] <= 59.5\ngini = 0.046\nsamples = 169\nvalue = [165, 4]"] ;
1064 -> 1065 ;
1066 [label="X[0] <= 57.5\ngini = 0.061\nsamples = 95\nvalue = [92, 3]"] ;
1065 -> 1066 ;
1067 [label="X[0] <= 56.5\ngini = 0.036\nsamples = 55\nvalue = [54, 1]"] ;
1066 -> 1067 ;
1068 [label="gini = 0.074\nsamples = 26\nvalue = [25, 1]"] ;
1067 -> 1068 ;
1069 [label="gini = 0.0\nsamples = 29\nvalue = [29, 0]"] ;
1067 -> 1069 ;
1070 [label="X[0] <= 58.5\ngini = 0.095\nsamples = 40\nvalue = [38, 2]"] ;
1066 -> 1070 ;
1071 [label="gini = 0.091\nsamples = 21\nvalue = [20, 1]"] ;
1070 -> 1071 ;
1072 [label="gini = 0.1\nsamples = 19\nvalue = [18, 1]"] ;
1070 -> 1072 ;
1073 [label="X[0] <= 61.5\ngini = 0.027\nsamples = 74\nvalue = [73, 1]"] ;
1065 -> 1073 ;
1074 [label="gini = 0.0\nsamples = 41\nvalue = [41, 0]"] ;
1073 -> 1074 ;
1075 [label="X[0] <= 62.5\ngini = 0.059\nsamples = 33\nvalue = [32, 1]"] ;
1073 -> 1075 ;
1076 [label="gini = 0.111\nsamples = 17\nvalue = [16, 1]"] ;
1075 -> 1076 ;
1077 [label="gini = 0.0\nsamples = 16\nvalue = [16, 0]"] ;
1075 -> 1077 ;
1078 [label="gini = 0.117\nsamples = 16\nvalue = [15, 1]"] ;
1064 -> 1078 ;
1079 [label="gini = 0.0\nsamples = 29\nvalue = [29, 0]"] ;
1063 -> 1079 ;
1080 [label="gini = 0.32\nsamples = 5\nvalue = [4, 1]"] ;
1062 -> 1080 ;
1081 [label="gini = 0.0\nsamples = 40\nvalue = [40, 0]"] ;
1061 -> 1081 ;
1082 [label="X[0] <= 33.5\ngini = 0.473\nsamples = 1650\nvalue = [1016, 634]"] ;
210 -> 1082 ;
1083 [label="X[0] <= 32.5\ngini = 0.382\nsamples = 268\nvalue = [199, 69]"] ;
1082 -> 1083 ;
1084 [label="X[0] <= 31.5\ngini = 0.37\nsamples = 200\nvalue = [151, 49]"] ;
1083 -> 1084 ;
1085 [label="X[0] <= 30.5\ngini = 0.362\nsamples = 135\nvalue = [103, 32]"] ;
1084 -> 1085 ;
1086 [label="gini = 0.367\nsamples = 66\nvalue = [50, 16]"] ;
1085 -> 1086 ;
1087 [label="gini = 0.356\nsamples = 69\nvalue = [53, 16]"] ;
1085 -> 1087 ;
1088 [label="gini = 0.386\nsamples = 65\nvalue = [48, 17]"] ;
1084 -> 1088 ;
1089 [label="gini = 0.415\nsamples = 68\nvalue = [48, 20]"] ;
1083 -> 1089 ;
1090 [label="X[0] <= 61.5\ngini = 0.483\nsamples = 1382\nvalue = [817, 565]"] ;
1082 -> 1090 ;
1091 [label="X[0] <= 53.5\ngini = 0.489\nsamples = 1246\nvalue = [717, 529]"] ;
1090 -> 1091 ;
1092 [label="X[0] <= 42.5\ngini = 0.492\nsamples = 1006\nvalue = [567, 439]"] ;
1091 -> 1092 ;
1093 [label="X[0] <= 41.5\ngini = 0.481\nsamples = 529\nvalue = [316, 213]"] ;
1092 -> 1093 ;
1094 [label="X[0] <= 34.5\ngini = 0.485\nsamples = 469\nvalue = [275, 194]"] ;
1093 -> 1094 ;
1095 [label="gini = 0.47\nsamples = 53\nvalue = [33, 20]"] ;
1094 -> 1095 ;
1096 [label="X[0] <= 40.5\ngini = 0.487\nsamples = 416\nvalue = [242, 174]"] ;
1094 -> 1096 ;
1097 [label="X[0] <= 39.5\ngini = 0.488\nsamples = 353\nvalue = [204, 149]"] ;
1096 -> 1097 ;
1098 [label="X[0] <= 38.5\ngini = 0.486\nsamples = 310\nvalue = [181, 129]"] ;
1097 -> 1098 ;
1099 [label="X[0] <= 36.5\ngini = 0.488\nsamples = 249\nvalue = [144, 105]"] ;
1098 -> 1099 ;
1100 [label="X[0] <= 35.5\ngini = 0.483\nsamples = 147\nvalue = [87, 60]"] ;
1099 -> 1100 ;
1101 [label="gini = 0.484\nsamples = 83\nvalue = [49, 34]"] ;
1100 -> 1101 ;
1102 [label="gini = 0.482\nsamples = 64\nvalue = [38, 26]"] ;
1100 -> 1102 ;
1103 [label="X[0] <= 37.5\ngini = 0.493\nsamples = 102\nvalue = [57, 45]"] ;
1099 -> 1103 ;
1104 [label="gini = 0.495\nsamples = 42\nvalue = [23, 19]"] ;
1103 -> 1104 ;
1105 [label="gini = 0.491\nsamples = 60\nvalue = [34, 26]"] ;
1103 -> 1105 ;
1106 [label="gini = 0.477\nsamples = 61\nvalue = [37, 24]"] ;
1098 -> 1106 ;
1107 [label="gini = 0.498\nsamples = 43\nvalue = [23, 20]"] ;
1097 -> 1107 ;
1108 [label="gini = 0.479\nsamples = 63\nvalue = [38, 25]"] ;
1096 -> 1108 ;
1109 [label="gini = 0.433\nsamples = 60\nvalue = [41, 19]"] ;
1093 -> 1109 ;
1110 [label="X[0] <= 51.5\ngini = 0.499\nsamples = 477\nvalue = [251, 226]"] ;
1092 -> 1110 ;
1111 [label="X[0] <= 50.5\ngini = 0.499\nsamples = 411\nvalue = [212, 199]"] ;
1110 -> 1111 ;
1112 [label="X[0] <= 48.5\ngini = 0.499\nsamples = 373\nvalue = [196, 177]"] ;
1111 -> 1112 ;
1113 [label="X[0] <= 47.5\ngini = 0.498\nsamples = 276\nvalue = [147, 129]"] ;
1112 -> 1113 ;
1114 [label="X[0] <= 45.5\ngini = 0.499\nsamples = 238\nvalue = [124, 114]"] ;
1113 -> 1114 ;
1115 [label="X[0] <= 44.5\ngini = 0.497\nsamples = 133\nvalue = [72, 61]"] ;
1114 -> 1115 ;
1116 [label="X[0] <= 43.5\ngini = 0.5\nsamples = 88\nvalue = [45, 43]"] ;
1115 -> 1116 ;
1117 [label="gini = 0.5\nsamples = 44\nvalue = [22, 22]"] ;
1116 -> 1117 ;
1118 [label="gini = 0.499\nsamples = 44\nvalue = [23, 21]"] ;
1116 -> 1118 ;
1119 [label="gini = 0.48\nsamples = 45\nvalue = [27, 18]"] ;
1115 -> 1119 ;
1120 [label="X[0] <= 46.5\ngini = 0.5\nsamples = 105\nvalue = [52, 53]"] ;
1114 -> 1120 ;
1121 [label="gini = 0.5\nsamples = 57\nvalue = [29, 28]"] ;
1120 -> 1121 ;
1122 [label="gini = 0.499\nsamples = 48\nvalue = [23, 25]"] ;
1120 -> 1122 ;
1123 [label="gini = 0.478\nsamples = 38\nvalue = [23, 15]"] ;
1113 -> 1123 ;
1124 [label="X[0] <= 49.5\ngini = 0.5\nsamples = 97\nvalue = [49, 48]"] ;
1112 -> 1124 ;
1125 [label="gini = 0.499\nsamples = 42\nvalue = [20, 22]"] ;
1124 -> 1125 ;
1126 [label="gini = 0.499\nsamples = 55\nvalue = [29, 26]"] ;
1124 -> 1126 ;
1127 [label="gini = 0.488\nsamples = 38\nvalue = [16, 22]"] ;
1111 -> 1127 ;
1128 [label="X[0] <= 52.5\ngini = 0.483\nsamples = 66\nvalue = [39, 27]"] ;
1110 -> 1128 ;
1129 [label="gini = 0.482\nsamples = 37\nvalue = [22, 15]"] ;
1128 -> 1129 ;
1130 [label="gini = 0.485\nsamples = 29\nvalue = [17, 12]"] ;
1128 -> 1130 ;
1131 [label="X[0] <= 60.5\ngini = 0.469\nsamples = 240\nvalue = [150, 90]"] ;
1091 -> 1131 ;
1132 [label="X[0] <= 56.5\ngini = 0.461\nsamples = 214\nvalue = [137, 77]"] ;
1131 -> 1132 ;
1133 [label="X[0] <= 55.5\ngini = 0.442\nsamples = 100\nvalue = [67, 33]"] ;
1132 -> 1133 ;
1134 [label="X[0] <= 54.5\ngini = 0.454\nsamples = 69\nvalue = [45, 24]"] ;
1133 -> 1134 ;
1135 [label="gini = 0.459\nsamples = 42\nvalue = [27, 15]"] ;
1134 -> 1135 ;
1136 [label="gini = 0.444\nsamples = 27\nvalue = [18, 9]"] ;
1134 -> 1136 ;
1137 [label="gini = 0.412\nsamples = 31\nvalue = [22, 9]"] ;
1133 -> 1137 ;
1138 [label="X[0] <= 57.5\ngini = 0.474\nsamples = 114\nvalue = [70, 44]"] ;
1132 -> 1138 ;
1139 [label="gini = 0.5\nsamples = 33\nvalue = [17, 16]"] ;
1138 -> 1139 ;
1140 [label="X[0] <= 58.5\ngini = 0.452\nsamples = 81\nvalue = [53, 28]"] ;
1138 -> 1140 ;
1141 [label="gini = 0.469\nsamples = 32\nvalue = [20, 12]"] ;
1140 -> 1141 ;
1142 [label="X[0] <= 59.5\ngini = 0.44\nsamples = 49\nvalue = [33, 16]"] ;
1140 -> 1142 ;
1143 [label="gini = 0.444\nsamples = 24\nvalue = [16, 8]"] ;
1142 -> 1143 ;
1144 [label="gini = 0.435\nsamples = 25\nvalue = [17, 8]"] ;
1142 -> 1144 ;
1145 [label="gini = 0.5\nsamples = 26\nvalue = [13, 13]"] ;
1131 -> 1145 ;
1146 [label="X[0] <= 86.5\ngini = 0.389\nsamples = 136\nvalue = [100, 36]"] ;
1090 -> 1146 ;
1147 [label="X[0] <= 72.5\ngini = 0.384\nsamples = 135\nvalue = [100, 35]"] ;
1146 -> 1147 ;
1148 [label="X[0] <= 68.5\ngini = 0.366\nsamples = 112\nvalue = [85, 27]"] ;
1147 -> 1148 ;
1149 [label="X[0] <= 65.5\ngini = 0.403\nsamples = 93\nvalue = [67, 26]"] ;
1148 -> 1149 ;
1150 [label="X[0] <= 63.5\ngini = 0.348\nsamples = 58\nvalue = [45, 13]"] ;
1149 -> 1150 ;
1151 [label="X[0] <= 62.5\ngini = 0.408\nsamples = 35\nvalue = [25, 10]"] ;
1150 -> 1151 ;
1152 [label="gini = 0.291\nsamples = 17\nvalue = [14, 3]"] ;
1151 -> 1152 ;
1153 [label="gini = 0.475\nsamples = 18\nvalue = [11, 7]"] ;
1151 -> 1153 ;
1154 [label="X[0] <= 64.5\ngini = 0.227\nsamples = 23\nvalue = [20, 3]"] ;
1150 -> 1154 ;
1155 [label="gini = 0.198\nsamples = 9\nvalue = [8, 1]"] ;
1154 -> 1155 ;
1156 [label="gini = 0.245\nsamples = 14\nvalue = [12, 2]"] ;
1154 -> 1156 ;
1157 [label="X[0] <= 66.5\ngini = 0.467\nsamples = 35\nvalue = [22, 13]"] ;
1149 -> 1157 ;
1158 [label="gini = 0.492\nsamples = 16\nvalue = [9, 7]"] ;
1157 -> 1158 ;
1159 [label="X[0] <= 67.5\ngini = 0.432\nsamples = 19\nvalue = [13, 6]"] ;
1157 -> 1159 ;
1160 [label="gini = 0.375\nsamples = 8\nvalue = [6, 2]"] ;
1159 -> 1160 ;
1161 [label="gini = 0.463\nsamples = 11\nvalue = [7, 4]"] ;
1159 -> 1161 ;
1162 [label="X[0] <= 70.5\ngini = 0.1\nsamples = 19\nvalue = [18, 1]"] ;
1148 -> 1162 ;
1163 [label="X[0] <= 69.5\ngini = 0.18\nsamples = 10\nvalue = [9, 1]"] ;
1162 -> 1163 ;
1164 [label="gini = 0.0\nsamples = 6\nvalue = [6, 0]"] ;
1163 -> 1164 ;
1165 [label="gini = 0.375\nsamples = 4\nvalue = [3, 1]"] ;
1163 -> 1165 ;
1166 [label="gini = 0.0\nsamples = 9\nvalue = [9, 0]"] ;
1162 -> 1166 ;
1167 [label="X[0] <= 81.5\ngini = 0.454\nsamples = 23\nvalue = [15, 8]"] ;
1147 -> 1167 ;
1168 [label="X[0] <= 78.5\ngini = 0.472\nsamples = 21\nvalue = [13, 8]"] ;
1167 -> 1168 ;
1169 [label="X[0] <= 75.5\ngini = 0.444\nsamples = 15\nvalue = [10, 5]"] ;
1168 -> 1169 ;
1170 [label="X[0] <= 73.5\ngini = 0.486\nsamples = 12\nvalue = [7, 5]"] ;
1169 -> 1170 ;
1171 [label="gini = 0.444\nsamples = 3\nvalue = [2, 1]"] ;
1170 -> 1171 ;
1172 [label="X[0] <= 74.5\ngini = 0.494\nsamples = 9\nvalue = [5, 4]"] ;
1170 -> 1172 ;
1173 [label="gini = 0.5\nsamples = 4\nvalue = [2, 2]"] ;
1172 -> 1173 ;
1174 [label="gini = 0.48\nsamples = 5\nvalue = [3, 2]"] ;
1172 -> 1174 ;
1175 [label="gini = 0.0\nsamples = 3\nvalue = [3, 0]"] ;
1169 -> 1175 ;
1176 [label="X[0] <= 80.0\ngini = 0.5\nsamples = 6\nvalue = [3, 3]"] ;
1168 -> 1176 ;
1177 [label="gini = 0.444\nsamples = 3\nvalue = [1, 2]"] ;
1176 -> 1177 ;
1178 [label="gini = 0.444\nsamples = 3\nvalue = [2, 1]"] ;
1176 -> 1178 ;
1179 [label="gini = 0.0\nsamples = 2\nvalue = [2, 0]"] ;
1167 -> 1179 ;
1180 [label="gini = 0.0\nsamples = 1\nvalue = [0, 1]"] ;
1146 -> 1180 ;
1181 [label="X[0] <= 33.5\ngini = 0.498\nsamples = 2253\nvalue = [1064, 1189]"] ;
209 -> 1181 ;
1182 [label="X[0] <= 32.5\ngini = 0.469\nsamples = 319\nvalue = [199, 120]"] ;
1181 -> 1182 ;
1183 [label="X[0] <= 31.5\ngini = 0.45\nsamples = 222\nvalue = [146, 76]"] ;
1182 -> 1183 ;
1184 [label="X[0] <= 30.5\ngini = 0.462\nsamples = 149\nvalue = [95, 54]"] ;
1183 -> 1184 ;
1185 [label="gini = 0.46\nsamples = 78\nvalue = [50, 28]"] ;
1184 -> 1185 ;
1186 [label="gini = 0.464\nsamples = 71\nvalue = [45, 26]"] ;
1184 -> 1186 ;
1187 [label="gini = 0.421\nsamples = 73\nvalue = [51, 22]"] ;
1183 -> 1187 ;
1188 [label="gini = 0.496\nsamples = 97\nvalue = [53, 44]"] ;
1182 -> 1188 ;
1189 [label="X[0] <= 57.5\ngini = 0.494\nsamples = 1934\nvalue = [865, 1069]"] ;
1181 -> 1189 ;
1190 [label="X[0] <= 51.5\ngini = 0.492\nsamples = 1681\nvalue = [734, 947]"] ;
1189 -> 1190 ;
1191 [label="X[0] <= 36.5\ngini = 0.495\nsamples = 1453\nvalue = [651, 802]"] ;
1190 -> 1191 ;
1192 [label="X[0] <= 35.5\ngini = 0.5\nsamples = 264\nvalue = [132, 132]"] ;
1191 -> 1192 ;
1193 [label="X[0] <= 34.5\ngini = 0.499\nsamples = 160\nvalue = [76, 84]"] ;
1192 -> 1193 ;
1194 [label="gini = 0.499\nsamples = 88\nvalue = [42, 46]"] ;
1193 -> 1194 ;
1195 [label="gini = 0.498\nsamples = 72\nvalue = [34, 38]"] ;
1193 -> 1195 ;
1196 [label="gini = 0.497\nsamples = 104\nvalue = [56, 48]"] ;
1192 -> 1196 ;
1197 [label="X[0] <= 39.5\ngini = 0.492\nsamples = 1189\nvalue = [519, 670]"] ;
1191 -> 1197 ;
1198 [label="X[0] <= 37.5\ngini = 0.481\nsamples = 236\nvalue = [95, 141]"] ;
1197 -> 1198 ;
1199 [label="gini = 0.492\nsamples = 73\nvalue = [32, 41]"] ;
1198 -> 1199 ;
1200 [label="X[0] <= 38.5\ngini = 0.474\nsamples = 163\nvalue = [63, 100]"] ;
1198 -> 1200 ;
1201 [label="gini = 0.46\nsamples = 78\nvalue = [28, 50]"] ;
1200 -> 1201 ;
1202 [label="gini = 0.484\nsamples = 85\nvalue = [35, 50]"] ;
1200 -> 1202 ;
1203 [label="X[0] <= 44.5\ngini = 0.494\nsamples = 953\nvalue = [424, 529]"] ;
1197 -> 1203 ;
1204 [label="X[0] <= 41.5\ngini = 0.497\nsamples = 435\nvalue = [202, 233]"] ;
1203 -> 1204 ;
1205 [label="X[0] <= 40.5\ngini = 0.49\nsamples = 184\nvalue = [79, 105]"] ;
1204 -> 1205 ;
1206 [label="gini = 0.496\nsamples = 105\nvalue = [48, 57]"] ;
1205 -> 1206 ;
1207 [label="gini = 0.477\nsamples = 79\nvalue = [31, 48]"] ;
1205 -> 1207 ;
1208 [label="X[0] <= 42.5\ngini = 0.5\nsamples = 251\nvalue = [123, 128]"] ;
1204 -> 1208 ;
1209 [label="gini = 0.495\nsamples = 89\nvalue = [49, 40]"] ;
1208 -> 1209 ;
1210 [label="X[0] <= 43.5\ngini = 0.496\nsamples = 162\nvalue = [74, 88]"] ;
1208 -> 1210 ;
1211 [label="gini = 0.496\nsamples = 79\nvalue = [36, 43]"] ;
1210 -> 1211 ;
1212 [label="gini = 0.496\nsamples = 83\nvalue = [38, 45]"] ;
1210 -> 1212 ;
1213 [label="X[0] <= 48.5\ngini = 0.49\nsamples = 518\nvalue = [222, 296]"] ;
1203 -> 1213 ;
1214 [label="X[0] <= 47.5\ngini = 0.485\nsamples = 317\nvalue = [131, 186]"] ;
1213 -> 1214 ;
1215 [label="X[0] <= 45.5\ngini = 0.49\nsamples = 263\nvalue = [113, 150]"] ;
1214 -> 1215 ;
1216 [label="gini = 0.482\nsamples = 84\nvalue = [34, 50]"] ;
1215 -> 1216 ;
1217 [label="X[0] <= 46.5\ngini = 0.493\nsamples = 179\nvalue = [79, 100]"] ;
1215 -> 1217 ;
1218 [label="gini = 0.496\nsamples = 83\nvalue = [38, 45]"] ;
1217 -> 1218 ;
1219 [label="gini = 0.489\nsamples = 96\nvalue = [41, 55]"] ;
1217 -> 1219 ;
1220 [label="gini = 0.444\nsamples = 54\nvalue = [18, 36]"] ;
1214 -> 1220 ;
1221 [label="X[0] <= 50.5\ngini = 0.496\nsamples = 201\nvalue = [91, 110]"] ;
1213 -> 1221 ;
1222 [label="X[0] <= 49.5\ngini = 0.498\nsamples = 138\nvalue = [65, 73]"] ;
1221 -> 1222 ;
1223 [label="gini = 0.498\nsamples = 71\nvalue = [33, 38]"] ;
1222 -> 1223 ;
1224 [label="gini = 0.499\nsamples = 67\nvalue = [32, 35]"] ;
1222 -> 1224 ;
1225 [label="gini = 0.485\nsamples = 63\nvalue = [26, 37]"] ;
1221 -> 1225 ;
1226 [label="X[0] <= 52.5\ngini = 0.463\nsamples = 228\nvalue = [83, 145]"] ;
1190 -> 1226 ;
1227 [label="gini = 0.272\nsamples = 37\nvalue = [6, 31]"] ;
1226 -> 1227 ;
1228 [label="X[0] <= 54.5\ngini = 0.481\nsamples = 191\nvalue = [77, 114]"] ;
1226 -> 1228 ;
1229 [label="X[0] <= 53.5\ngini = 0.456\nsamples = 74\nvalue = [26, 48]"] ;
1228 -> 1229 ;
1230 [label="gini = 0.45\nsamples = 41\nvalue = [14, 27]"] ;
1229 -> 1230 ;
1231 [label="gini = 0.463\nsamples = 33\nvalue = [12, 21]"] ;
1229 -> 1231 ;
1232 [label="X[0] <= 55.5\ngini = 0.492\nsamples = 117\nvalue = [51, 66]"] ;
1228 -> 1232 ;
1233 [label="gini = 0.498\nsamples = 47\nvalue = [22, 25]"] ;
1232 -> 1233 ;
1234 [label="X[0] <= 56.5\ngini = 0.485\nsamples = 70\nvalue = [29, 41]"] ;
1232 -> 1234 ;
1235 [label="gini = 0.478\nsamples = 33\nvalue = [13, 20]"] ;
1234 -> 1235 ;
1236 [label="gini = 0.491\nsamples = 37\nvalue = [16, 21]"] ;
1234 -> 1236 ;
1237 [label="X[0] <= 58.5\ngini = 0.499\nsamples = 253\nvalue = [131, 122]"] ;
1189 -> 1237 ;
1238 [label="gini = 0.444\nsamples = 27\nvalue = [18, 9]"] ;
1237 -> 1238 ;
1239 [label="X[0] <= 75.5\ngini = 0.5\nsamples = 226\nvalue = [113, 113]"] ;
1237 -> 1239 ;
